
/*
 * Project.c
 *
 *  Created on: Jun 5, 2018
 *      Author: Mohak Patel , Archit Tatwawadi
 */
/**
// Description:
 *
 * M&M sorting machine on the Nexys4 DDR FPGA.
 * Integrate the Raspberry Pi with Nexys4 DDR FPGA
 * Raspberry Pi and camera system.
 * Raspberry Pi - Do the image processing part and send a cropped image file to FPGA for color detection.
 * Image classification and detection of color on Nexys4 FPGA.(Machine learning)
 * Nexys4 sends the PWM signals to the servos for separation of M&M according to the color detected.
 * PmodOLEDrgb displays the color of detected M&M.

******************************************************************************/

#include <stdio.h>
#include <stdlib.h>
#include <stdint.h>
#include "platform.h"
#include "xparameters.h"
#include "xstatus.h"
#include "microblaze_sleep.h"
#include "nexys4IO.h"
#include "PmodOLEDrgb.h"
#include "PmodENC.h"
#include "xgpio.h"
#include "xintc.h"
#include "xtmrctr.h"
#include "xuartlite.h"
#include "pwm_tmrctr.h"
#include "sleep.h"

/************************** Constant Definitions ****************************/

// Clock frequencies
#define CPU_CLOCK_FREQ_HZ		XPAR_CPU_CORE_CLOCK_FREQ_HZ
#define AXI_CLOCK_FREQ_HZ		XPAR_CPU_M_AXI_DP_FREQ_HZ

// PWM and pulse detect timer parameters for first servo
#define PWM_TIMER_2_DEVICE_ID		XPAR_TMRCTR_2_DEVICE_ID

// PWM and pulse detect timer parameters for second servo
#define PWM_TIMER_3_DEVICE_ID		XPAR_TMRCTR_3_DEVICE_ID

// AXI timer parameters for Nexys4
#define AXI_TIMER_1_DEVICE_ID		XPAR_AXI_TIMER_1_DEVICE_ID
#define AXI_TIMER_1_BASEADDR		XPAR_AXI_TIMER_1_BASEADDR
#define AXI_TIMER_1_HIGHADDR		XPAR_AXI_TIMER_1_HIGHADDR
#define TmrCtrNumber_1				0

// Definitions for peripheral NEXYS4IO
#define NX4IO_DEVICE_ID		XPAR_NEXYS4IO_0_DEVICE_ID
#define NX4IO_BASEADDR		XPAR_NEXYS4IO_0_S00_AXI_BASEADDR
#define NX4IO_HIGHADDR		XPAR_NEXYS4IO_0_S00_AXI_HIGHADDR

// Definitions for peripheral PMODOLEDRGB
#define RGBDSPLY_DEVICE_ID		XPAR_PMODOLEDRGB_0_DEVICE_ID
#define RGBDSPLY_GPIO_BASEADDR	XPAR_PMODOLEDRGB_0_AXI_LITE_GPIO_BASEADDR
#define RGBDSPLY_GPIO_HIGHADDR	XPAR_PMODOLEDRGB_0_AXI_LITE_GPIO_HIGHADD
#define RGBDSPLY_SPI_BASEADDR	XPAR_PMODOLEDRGB_0_AXI_LITE_SPI_BASEADDR
#define RGBDSPLY_SPI_HIGHADDR	XPAR_PMODOLEDRGB_0_AXI_LITE_SPI_HIGHADDR

// Definitions for peripheral PMODENC
#define PMODENC_DEVICE_ID		XPAR_PMODENC_0_DEVICE_ID
#define PMODENC_BASEADDR		XPAR_PMODENC_0_AXI_LITE_GPIO_BASEADDR
#define PMODENC_HIGHADDR		XPAR_PMODENC_0_AXI_LITE_GPIO_HIGHADDR

// Fixed Interval timer - 100 MHz input clock, 40KHz output clock
// FIT_COUNT_1MSEC = FIT_CLOCK_FREQ_HZ * .001
#define FIT_IN_CLOCK_FREQ_HZ	CPU_CLOCK_FREQ_HZ
#define FIT_CLOCK_FREQ_HZ		40000
#define FIT_COUNT				(FIT_IN_CLOCK_FREQ_HZ / FIT_CLOCK_FREQ_HZ)
#define FIT_COUNT_1MSEC			40

//UARTLite
#define UARTLITE_DEVICE_ID	XPAR_AXI_UARTLITE_1_DEVICE_ID
#define TEST_BUFFER_SIZE    	784
#define TEST_BUFFER_SIZE_1    	10
#define TEST_BUFFER_SIZE_2    	1

// GPIO parameters
#define GPIO_0_DEVICE_ID			XPAR_AXI_GPIO_0_DEVICE_ID
#define GPIO_0_INPUT_0_CHANNEL		1
#define GPIO_0_OUTPUT_0_CHANNEL		2

// GPIO parameters
#define GPIO_1_DEVICE_ID			XPAR_AXI_GPIO_1_DEVICE_ID
#define GPIO_1_INPUT_0_CHANNEL		1
#define GPIO_1_OUTPUT_0_CHANNEL		2

// Interrupt Controller parameters
#define INTC_DEVICE_ID			XPAR_INTC_0_DEVICE_ID
#define FIT_INTERRUPT_ID		XPAR_MICROBLAZE_0_AXI_INTC_FIT_TIMER_0_INTERRUPT_INTR

/**************************** Type Definitions ******************************/

/***************** Macros (Inline Functions) Definitions ********************/

/************************** Variable Definitions ****************************/
// Microblaze peripheral instances
uint64_t 	timestamp = 0L;
PmodOLEDrgb	pmodOLEDrgb_inst;
PmodENC 	pmodENC_inst;
XGpio		GPIOInst0;					// GPIO instance
XGpio		GPIOInst1;					// GPIO instance
XIntc 		IntrptCtlrInst;				// Interrupt Controller instance
XTmrCtr		AXITimerInst1;				// PWM timer instance
XTmrCtr		PWMTimerInst2;				// PWM timer instance
XTmrCtr		PWMTimerInst3;				// PWM timer instance
XUartLite   UartLite;                   //UART instance initialization

// The following variables are shared between non-interrupt processing and
// interrupt processing such that they must be global(and declared volatile)
// These variables are controlled by the FIT timer interrupt handler


volatile u32			gpio_in;			// GPIO input port
u8                        RecvBuffer[TEST_BUFFER_SIZE]; //UART recieve buffer
u8							RecvBuffer_1[TEST_BUFFER_SIZE_1];
u8                        SendBuffer[TEST_BUFFER_SIZE_2]; //UART transmit buffer
/************************** Function Prototypes *****************************/
void PMDIO_itoa(int32_t value, char *string, int32_t radix);
void PMDIO_puthex(PmodOLEDrgb* InstancePtr, uint32_t num);
void PMDIO_putnum(PmodOLEDrgb* InstancePtr, int32_t num, int32_t radix);
int	 do_init(void);											// initialize system
void FIT_Handler(void);										// fixed interval timer interrupt handler
int AXI_Timer_1_initialize(void);
float node(int *X , int *w,int Xlength);
void servo1_PWM(int);											// TO set the PWM
void servo2_PWM(int);											// TO set the PWM
/***************************** Weight for Neural network***********************/

//Weights for hidden layer of neural network
	float w1[100][784]={{-0.01372465,-0.00430134,0.01398036,-0.01742379,-0.00179217,0.01776324,0.04833506,-0.03275366,-0.05792965,-0.01799343,0.02800805,0.03716260,0.03384050,-0.07451515,0.01418584,0.01284587,0.04943682,-0.04586434,0.04255265,0.05659398,-0.00928664,-0.00398257,-0.05756857,0.03193248,-0.05198757,-0.01877382,-0.00374351,-0.03973915,-0.06549998,0.01623660,-0.03757825,0.03025308,0.07590884,-0.05062826,0.08210459,-0.04241779,0.02764970,-0.05292484,0.06759715,-0.08185124,0.05078287,-0.00263309,-0.07404861,-0.06398240,-0.06999715,0.07085608,-0.01131468,0.01236208,0.06604023,0.02752248,0.03009953,-0.07397819,0.05089094,0.01451276,0.03838908,-0.05334801,0.07073060,-0.07340022,-0.05425186,0.02309036,-0.02994605,-0.00630200,0.00152455,0.04269341,0.00633735,-0.06163856,0.02325097,-0.00557029,-0.00020273,-0.01634382,0.02998221,-0.07116060,-0.01295563,0.07202634,0.00398583,0.06755269,-0.03271288,-0.01143524,-0.00192472,0.01975439,-0.00486032,0.03739148,0.06291056,0.05187663,0.03039581,-0.07534902,0.01251026,0.05866110,-0.00873904,0.05441844,-0.05837146,0.04801488,0.05754469,0.05482738,-0.06187101,0.00771022,-0.04182375,0.03703243,-0.04137711,-0.07251547,0.06473728,-0.02073754,0.06061362,-0.04095405,-0.07170475,0.04121801,-0.04921098,-0.07716364,0.06903411,0.06598638,0.02836385,-0.04259940,-0.03142666,-0.05630561,0.01218198,-0.00664169,-0.03947524,-0.04184866,0.07389994,0.05092168,0.01527713,-0.02124584,-0.07275203,-0.01129337,0.06525894,-0.04371199,-0.06662314,-0.06431758,0.07849438,0.08025783,0.01010118,0.06757060,-0.07378127,0.07456820,-0.03375522,0.01882587,0.05114491,-0.02350314,-0.06584285,-0.06881741,-0.07957645,-0.04022635,0.03341494,-0.03559284,-0.03970528,-0.00468886,0.00065847,0.00975312,0.02370011,-0.02607100,0.00506528,0.01438530,-0.01803584,-0.01002260,-0.01160951,0.01355815,-0.06814580,-0.05195051,0.04381296,-0.05804449,-0.05770217,-0.06116703,-0.01408615,-0.07634397,0.01551823,0.05821224,-0.08167791,0.02395798,0.07386175,0.02232113,-0.06276192,0.00422701,0.01127408,0.02124898,-0.03442951,-0.04517037,0.07012932,0.05526632,0.03557818,-0.02239181,-0.04530904,-0.00714058,-0.00083267,-0.04435541,0.04083335,0.06570221,-0.07654238,0.08189346,-0.03613913,-0.07658895,0.00645389,-0.02855269,-0.05184370,0.02475671,0.06383897,-0.00973394,-0.06668976,-0.02562035,0.07711820,-0.07010724,-0.01248185,-0.00117715,0.06575301,-0.07371347,-0.05848591,0.01154760,-0.04196524,0.00487202,0.07027532,-0.01496687,0.01107451,0.07662480,-0.05863150,-0.04131689,-0.08104910,0.04849702,-0.03957810,0.06229796,-0.00128929,-0.07932336,0.05502607,0.01926793,0.07774451,0.06450893,0.04947807,-0.03573303,0.00126311,0.07758354,0.05652119,-0.03969892,0.05998471,-0.07537059,0.07853287,0.03573634,-0.01290363,-0.04682267,-0.04925578,-0.01418391,-0.02560134,-0.03578598,-0.05315041,-0.07227162,-0.02370084,-0.02200611,0.05254036,-0.04696928,-0.06484741,-0.00202040,-0.00435264,-0.03172394,0.06325904,0.04553460,0.01743783,-0.02939966,-0.00526275,0.04693203,0.07601769,-0.05095607,-0.00911375,-0.04240537,-0.04833796,-0.02828807,-0.04490188,-0.07388465,-0.07953846,-0.02849011,0.02108837,-0.07068586,0.01967079,-0.03034251,0.07374769,0.02675816,0.08070178,0.05584155,-0.02511254,0.07248798,-0.01857182,-0.06523386,-0.07230580,0.07915422,-0.00314902,0.04062116,0.03201625,-0.07654224,0.03209435,-0.04364187,-0.06140474,0.06616697,-0.07107793,0.06056122,0.07307597,-0.01676246,0.02625733,-0.00803151,-0.04925250,-0.03287853,-0.01976003,-0.00533405,-0.05912444,-0.06234124,-0.00841021,0.06245340,0.01763795,0.06477614,-0.01469569,-0.07965124,0.06441279,-0.05727985,0.04454997,0.05312830,0.08227195,0.01142933,0.05097941,0.05607764,0.05921054,-0.07039458,-0.01400597,0.02992010,0.07050683,0.02017244,-0.07383720,0.04900588,0.07934327,-0.00115009,0.03162756,0.06646761,-0.02807741,-0.00957633,0.08195534,0.06900479,-0.05338255,0.08226103,-0.04664174,0.00235382,-0.01632685,0.01807310,-0.03173647,-0.02960911,-0.02291816,0.01654036,-0.02204775,-0.00122512,-0.02539345,-0.04491413,0.00687068,0.01291680,0.02601805,-0.03270742,-0.06225297,0.00103325,-0.05824027,0.05152009,0.04170095,-0.06759425,0.01861395,0.02626874,0.04141512,-0.00268884,-0.02309470,-0.06068118,-0.03631591,0.02709477,-0.07638239,-0.03127604,0.01361680,0.00527995,0.05791816,-0.06524499,-0.02968288,0.01500639,0.06525891,-0.02938892,-0.07468533,0.07705872,0.04876709,0.02946674,-0.07592956,-0.07917137,-0.02792962,0.00963325,-0.01541247,-0.00327496,-0.07292517,-0.02767608,-0.03309263,0.00695863,-0.04179464,0.03858832,-0.02617662,-0.08220895,0.02140474,-0.02199743,0.07226865,0.01021475,-0.01577868,-0.07312110,0.01674427,0.06094410,-0.01888016,0.00536448,0.02748345,-0.00460397,0.05154468,-0.00407188,0.00716227,-0.07236794,0.03187287,-0.02335912,-0.02476114,-0.03172367,0.06070606,0.07897912,0.00972380,0.05983192,-0.01415274,-0.01075633,-0.04723466,0.07295047,0.04634377,-0.05229207,0.07859536,0.06230830,0.04042114,0.05727045,0.04157265,-0.07426126,-0.04654687,-0.02598377,0.06875156,-0.05803654,0.07106288,0.03305032,-0.03881657,-0.07484895,0.04556338,-0.05663252,-0.06913818,-0.06578033,-0.05844459,-0.05249927,0.02571907,-0.03877138,-0.02774116,0.00991724,0.06797867,0.07354948,-0.01405621,-0.06840107,0.04257073,-0.01565526,-0.04912514,-0.05451161,0.05837566,-0.00394264,0.07428819,-0.03396898,-0.03564407,0.03798775,-0.02782790,-0.01712326,-0.04542041,0.01200830,0.01059855,-0.00038697,-0.00002935,0.02671091,0.08229570,0.06994414,-0.05278727,-0.01708376,0.02227566,0.05535056,-0.03061636,-0.03151342,0.04974365,-0.04093471,0.01573745,-0.07907523,0.02870861,0.03795075,0.00792222,-0.00986330,-0.04006000,0.00447401,0.03626751,-0.04074970,-0.00762326,-0.01308013,-0.05335286,-0.01329638,0.04225063,-0.03770086,0.06749199,-0.04756143,0.07259794,0.02378064,-0.06140215,0.05567634,0.02781744,-0.00943826,-0.07262965,0.05597825,0.03695139,-0.05357553,-0.02523923,-0.07295685,-0.00586596,-0.00077108,0.05708885,-0.02407975,0.03613748,0.02311717,0.00576802,-0.02648928,-0.08150731,-0.02108348,-0.06596157,-0.04919585,-0.02314218,-0.01730140,-0.05779335,0.05446453,-0.07873739,-0.00037874,0.01789221,0.07012954,0.04274589,-0.01671840,0.03944638,0.06741767,0.02284373,-0.02441381,-0.00452039,-0.01956076,0.02099326,0.01092706,0.00407600,-0.04475126,-0.05999465,0.07891253,0.03439438,-0.02383411,0.04831533,-0.02444775,0.03696923,-0.06815030,-0.07600267,-0.08036606,0.01439016,-0.08189940,-0.07191150,-0.03230567,-0.03655399,0.07100202,0.07652786,-0.06012126,0.04408415,0.02890541,0.07829455,-0.05949488,0.05397281,0.00768885,-0.05081997,-0.01386906,-0.01079996,0.03268146,0.07437254,0.06478050,-0.02525884,0.01906963,-0.05860029,0.04956003,-0.05076183,0.00515289,-0.02255183,0.06318642,-0.02583657,-0.00373553,-0.01664288,0.06870343,-0.03245561,-0.01014082,-0.05516226,-0.02960390,0.04543503,0.06827131,0.04106171,-0.02774080,0.05111325,-0.03574118,0.05118109,0.04745620,-0.00838242,0.06093213,0.06981070,-0.05787557,-0.07392515,0.00155597,0.01178000,-0.00242919,-0.03661313,-0.02066769,-0.04228951,-0.07360034,-0.07452942,-0.01666260,0.04840448,0.03321924,0.04972987,-0.03712839,0.05103008,0.07348967,-0.05615146,-0.04448741,0.06708413,-0.07880592,0.00454090,0.06470412,-0.06804824,0.07704775,-0.01052210,0.03656097,0.00025059,-0.04218450,0.02170783,-0.05949360,0.02559382,0.04818183,-0.04134888,0.07275982,-0.02017126,-0.07553809,0.06753452,-0.02352663,-0.04855232,-0.00819941,-0.05396580,-0.04122785,0.08030705,0.01497681,0.03075130,-0.03392626,0.06836289,0.07023807,-0.04054939,0.07298544,0.05765633,-0.06230813,-0.07264319,-0.07796971,0.08091827,0.02770187,0.01618678,0.04530154,0.01133010,-0.06933635,-0.04769525,0.02676808,-0.04212322,-0.05075083,0.05709404,-0.05278597,0.00936920,0.03048758,0.05946851,-0.06054340,0.02814785,0.02889193,0.06023301,-0.06510106,0.01345756,-0.05008674,0.04030702,0.07433175,0.01528703,-0.04286107,0.06865123,-0.04170217,-0.06719461,-0.03400489,-0.03752096,-0.04566643,-0.00208932,0.00783014,-0.04610504,-0.02461495,0.04239991,0.04526117,0.06539609,-0.06356575,-0.03245023,0.04424277,-0.03243143,-0.03904929,0.07984279,0.00118250,0.04050708,-0.02258375,0.01924419,-0.06542125,-0.01581364,0.04014871,-0.00984495,-0.04684089,-0.00609850,0.06360714,-0.02680978,0.04452908,-0.08100335,0.05393133,0.05953129,-0.07264174,0.00071780,0.06103767,0.00251886,0.05897972,-0.04139241,-0.06730080,-0.04035175,0.06323223,0.01126141,-0.05264706,0.00022361,0.03556475,-0.06952813,0.07416299,-0.05588335,-0.07297463,-0.00548027,-0.03501530,-0.02168506,0.06557283,0.04232771,0.08044380,-0.07886183,0.07432523,-0.07761344,0.07874537,-0.00778838,-0.06999598,0.06983036,0.04001622,0.04974756,-0.03830837,-0.07460947,-0.07907302,0.04972848,-0.03167743,-0.00287665,0.03864335,0.08135292,0.02112567,-0.03717058,-0.05166124,-0.01021517,-0.02188370,0.03923230,0.01810069,0.05753380,0.01301017,-0.08076745,0.03534403,-0.05770288,0.01983353,-0.05604237,-0.03235351,-0.04330548,0.05790488,0.03102902,-0.01682842,0.04328293,-0.01795468,0.06579679,0.00593036,-0.00151697,0.00452092,-0.02485152,-0.02664777,0.03295930,0.01828919,0.03870591,0.03452937,0.07715115,0.07807592},
			{-0.03938767,0.04555145,-0.00806788,0.02505354,0.00055315,-0.04238432,0.04137862,0.03439271,-0.00972170,-0.02753191,-0.04739113,-0.00083432,-0.01028362,-0.03266301,0.04768208,0.01946086,-0.00181884,-0.00264407,0.01227716,-0.05090639,0.04711372,-0.02642729,-0.01933002,0.01752815,0.02102787,0.03687280,-0.00679704,-0.06274661,-0.00649783,-0.04599371,0.03237268,-0.01701938,0.03906020,-0.00102130,0.06549104,-0.07427660,0.02861099,0.05212130,0.02270017,0.06911339,-0.04520053,0.02330226,0.06889687,0.00760566,0.01602947,-0.00022093,-0.06231995,0.01853324,-0.05007097,0.04572928,0.02739339,0.00244626,0.08051613,-0.06547633,0.05420916,-0.03456774,-0.01157140,0.00434699,-0.02395752,-0.04351541,-0.06545796,-0.06441449,-0.02314396,0.00681377,0.06551674,0.04195072,0.04889202,0.02298135,0.04372604,0.00404645,0.01804377,-0.06693046,0.02605156,-0.06005391,-0.06008220,0.06272870,-0.02522399,-0.06810064,0.03109331,0.00990700,-0.07299380,0.05452549,0.05624694,-0.05213155,0.00744221,-0.04687816,-0.02346030,0.00800256,-0.05444214,-0.05785410,0.06848077,0.08172549,0.06666136,-0.04079772,-0.01021114,-0.05848373,-0.03408407,0.00303754,0.02190240,-0.05081230,-0.05980180,0.07521971,-0.05054633,-0.07611072,0.06201918,-0.01766545,0.01011159,-0.05014785,0.07645044,-0.00058618,0.05233867,-0.00032417,0.03225514,-0.02125022,-0.01941434,-0.05402327,0.03298745,-0.07984146,-0.00247523,0.04709029,-0.01999953,0.06741935,-0.00176980,0.04881676,0.03660618,0.06001018,-0.00110096,0.01890001,-0.02854112,0.04303271,0.04497002,0.04315816,-0.04333940,-0.01016724,-0.00349370,-0.03325336,0.06098422,-0.00855130,0.06718038,-0.02860351,-0.00830235,0.04838449,-0.04902326,0.03052770,0.05166556,0.05035901,0.00997306,0.07060745,-0.07117601,0.07224451,0.04577242,-0.06508337,0.02334553,-0.05067243,-0.04458165,0.01825447,0.04161460,0.06004004,-0.04993642,-0.02300566,-0.00782552,-0.03651639,0.05398819,0.01369091,-0.03159992,-0.01292817,0.06640266,0.06890927,-0.06480443,-0.05650410,-0.04925509,0.04248919,-0.05704899,-0.03250014,-0.03965814,-0.00073306,0.02823808,-0.03852966,-0.01378549,-0.07241432,-0.03354100,0.03706062,0.07940255,0.03182957,0.06596625,0.07648726,0.00351992,0.06706327,0.02795323,0.06056400,0.00552503,0.05125614,-0.02439780,-0.04508604,-0.02841337,0.03585432,0.00558207,-0.01907208,-0.07884002,-0.02424956,0.01390817,0.01204617,0.04124189,0.07887568,-0.02022372,-0.02031313,-0.04129001,-0.00005512,0.02355531,0.05509843,-0.03362261,-0.06198285,-0.04040256,-0.07072636,-0.03449254,0.00667005,0.01229119,-0.05298114,-0.02043256,0.02869366,0.04497549,-0.05532335,0.06869476,-0.04507074,-0.01928337,-0.03118131,-0.06102313,-0.08189760,-0.03852815,0.06848863,-0.01015475,0.01473919,0.02330933,-0.07803750,-0.06547059,-0.03442352,0.01197277,-0.02710510,-0.05061749,0.07858898,0.00509346,-0.07869388,-0.02020766,0.01219341,0.00499695,0.01215153,-0.03768870,-0.01366671,-0.07162785,0.02094544,-0.06273414,-0.00908183,0.02775495,-0.01644170,-0.02319584,0.00344943,-0.03177318,-0.05191398,0.04021449,-0.00391879,0.01537418,0.03223134,-0.04676798,-0.03006616,0.03178817,-0.05725572,0.03877264,-0.04265858,0.03899502,0.05213936,-0.02683868,-0.04021853,-0.02041480,0.03088779,-0.01001867,0.00910211,-0.02652409,-0.08021065,-0.01223444,-0.07521197,-0.04281091,-0.01928864,-0.00218444,-0.05425387,0.06893297,-0.06068356,0.00043346,0.01346489,0.07392967,-0.00747512,-0.01056362,-0.04294324,0.04362248,-0.07228806,0.02980392,0.06762783,-0.04909527,0.06315868,0.05470987,0.06982315,0.07228141,-0.04430743,0.00875416,-0.06815249,0.06669584,0.04574639,-0.03314279,-0.05765108,0.04556939,-0.00459303,0.01569862,-0.02125435,0.04818897,0.07462694,-0.02306198,-0.07724502,-0.01639503,0.04307236,-0.04424147,0.04696637,-0.02070859,0.00578187,0.00605875,-0.02555158,-0.01104998,0.07996744,-0.03678200,-0.04189861,0.05498608,-0.01278352,-0.00626794,0.08223535,0.01873773,0.04815990,0.06507733,0.03942220,0.03262074,0.07956183,-0.06025251,-0.00952223,0.05758904,-0.00551209,-0.01298819,-0.03826306,-0.07681957,0.01570953,-0.06528219,-0.07895112,-0.06781304,0.01841456,0.06108963,-0.00232124,0.00366152,-0.05930810,-0.06967844,-0.03927443,0.01946761,-0.05343503,0.01437102,0.02147326,-0.02731078,0.02818096,-0.04931636,-0.00989618,-0.06101856,0.04236397,-0.02003850,-0.04197095,0.02941585,-0.03446664,-0.02478709,0.07493043,0.06300318,0.00386108,-0.00736593,-0.07703469,0.07984322,-0.07244109,-0.03611530,-0.01708074,-0.03039576,-0.01472554,0.04939605,-0.07187573,-0.02928096,-0.01362719,-0.03946964,-0.05800050,-0.02070892,-0.06043524,0.03159206,0.02009667,0.01132084,-0.07232838,0.04846460,-0.03738568,-0.04270303,-0.04223396,0.00996153,-0.05967955,-0.06890638,-0.05891987,0.07677969,0.04079961,0.04274766,0.03083366,-0.07792035,0.07883032,-0.01263618,0.04449277,-0.08008787,-0.02377261,0.05178139,0.02787356,0.03236913,0.03186148,-0.08107245,0.03257881,-0.02843283,0.07594781,0.03954978,0.07858565,-0.05207716,-0.03585557,-0.03447972,-0.01750631,-0.04738463,-0.06608378,0.00376397,-0.02560139,-0.07693848,-0.03526772,-0.02114109,-0.00104728,-0.01360957,0.06534074,-0.05102110,-0.01039949,0.00205287,0.06927450,-0.05594082,-0.04334820,-0.00837412,-0.01527723,0.06740889,-0.00895900,0.06264529,0.01015452,0.07143039,-0.02604839,0.05951685,-0.02952182,-0.01224128,-0.00050659,-0.07351840,-0.07616773,0.06335396,0.06535009,0.00235368,-0.01555843,0.01502403,0.03414007,-0.07076815,0.01442113,0.00645224,-0.04661104,-0.02306465,0.05618767,-0.03063064,0.06814016,-0.06025202,0.05011085,0.01707630,-0.03258660,0.01029284,0.00366024,-0.01566809,-0.04738814,0.07284242,0.01216978,-0.03057725,0.06584528,0.08092454,0.03999709,0.06063196,-0.03140908,-0.07917743,0.05903357,-0.01307990,0.04396100,-0.01232297,0.07625821,0.05467957,-0.00256284,0.03315607,-0.02449405,0.00797191,-0.03877139,-0.01080098,-0.04585442,-0.05185006,-0.02809715,0.00612652,0.03552686,0.07015124,0.00491414,-0.03631964,0.04471554,-0.01282416,0.07489522,-0.07441397,-0.03215894,-0.06927738,0.07567807,-0.04061538,0.04115788,-0.06750393,0.00566877,-0.05931831,0.01653795,0.03917930,0.01502787,-0.04693447,0.03509379,-0.05882321,-0.06920345,-0.02832225,-0.01491218,-0.06697188,-0.08230883,0.00179420,0.07647966,0.04884094,-0.05003563,0.01440879,-0.03320455,-0.00291018,-0.03804582,0.04546146,0.04337768,-0.02520395,0.00382152,-0.04538177,0.00637178,0.03312954,-0.03442038,-0.00976428,-0.05065450,0.05256712,0.07712570,-0.03073580,0.02569658,0.05263966,0.02872773,-0.03113806,0.05032276,-0.03834858,0.02786482,-0.04227629,0.03655114,-0.05339567,-0.04577904,-0.03725865,0.03005879,-0.02336675,-0.04116988,0.02828043,0.06559935,0.05382898,-0.03673859,-0.00507206,0.07890376,-0.03894987,0.01573957,-0.00839943,-0.04234757,0.07144494,0.07719170,0.01899483,-0.01342560,-0.06793215,-0.06254014,-0.02160172,0.00299854,-0.01335552,-0.04590838,-0.05579225,-0.03976560,-0.06674372,0.02051713,0.01239665,0.04909895,-0.04989763,0.07344513,-0.04882061,0.03385272,0.05291726,-0.04801765,-0.04033155,-0.04138752,0.05094859,-0.06653877,-0.00280946,0.06342015,-0.00457026,-0.04895180,0.02463640,0.01571193,0.01246221,0.00777907,0.04713918,-0.03853600,0.05709207,-0.06129410,0.04925579,0.08220741,-0.07888813,-0.06477670,-0.04984192,0.01836074,-0.00628589,0.06643726,0.03590442,-0.03255488,-0.04123172,-0.01836084,-0.04038638,-0.08219872,0.06471121,0.05479413,0.00885385,0.08200268,-0.05969340,0.04953349,0.01876994,0.05882537,0.02488287,0.08037184,-0.06577796,-0.06712800,-0.00621033,0.05308229,0.01242621,0.04162048,0.02792251,0.00914361,0.04859231,-0.08113328,-0.02398571,0.03716265,0.02454056,-0.06110781,0.07069887,0.00271891,-0.05334016,0.05772950,-0.04727899,0.03134143,0.03308477,0.06472099,0.07464336,0.02641667,0.01677829,-0.04964165,-0.00318667,-0.07342415,0.00193080,0.07001449,0.04733403,-0.05253634,0.00812530,-0.07090521,-0.01741479,-0.00515055,-0.02006819,0.02240681,-0.06856013,0.08096860,-0.00850812,0.00940805,0.08152638,-0.06361366,0.07409805,0.03653190,0.06412691,-0.00165440,-0.06696646,0.07612370,-0.04913184,-0.07550971,0.07698794,0.05151466,0.04948220,0.04512414,0.01075376,0.08148064,-0.06566841,-0.01612309,0.02123934,0.00269314,-0.06438595,-0.02619807,-0.05674277,0.03551323,0.04210129,0.05013059,-0.02891713,-0.02258122,0.00131951,0.01638664,-0.04634508,0.06145780,0.00966654,0.05217746,-0.03595382,-0.03057285,-0.02739510,-0.03665108,-0.01970585,0.00069003,0.06082423,0.07587247,0.05913754,-0.01151872,-0.01020724,-0.01996050,0.06942290,0.06077021,0.06729037,0.05581166,-0.04668429,0.01987735,-0.00133649,0.06924307,-0.04225001,0.04945213,-0.06274691,-0.07397559,0.02984927,0.00606093,-0.01314747,0.03400371,0.04374792,-0.00910126,-0.02342298,0.02384161,-0.02958245,-0.00262068,-0.00429566,-0.03729986,-0.00160449,-0.01212229,0.04045579,0.05837938,0.05389810,0.01707573,-0.06405178,-0.00071959,0.01665229,-0.06087338,0.00512256,-0.06516396,-0.05899671,-0.07970881,0.03114646,0.00134058,-0.05680570,0.01262584,-0.08146036,-0.02915681,0.07050881,0.04761820,0.04859339,0.08104038,0.06898485,0.06470838,0.00854417,-0.02885479,-0.03370595,0.06256875,-0.03195790,-0.02409286,0.07144496,-0.07282541},
			{-0.04279091,-0.05403877,0.02535565,-0.01189687,0.04963325,0.07538331,0.03469912,0.02069774,0.04426138,-0.04011223,0.05676822,-0.03875602,0.02749979,-0.04918436,-0.04002522,-0.04259092,-0.00142938,-0.04490531,0.01228029,-0.04810909,0.06812102,-0.04677262,0.05850014,-0.02849231,-0.04989146,-0.04749270,0.06759049,-0.03750493,-0.05794037,-0.05092163,0.05798823,0.03516344,-0.07184939,0.07585944,-0.07952514,0.00319091,0.04214003,-0.07788523,0.01114069,0.04372500,0.03415466,-0.04200478,0.00160371,-0.04523053,0.01595442,-0.06545910,-0.01452781,0.08093013,-0.00382999,0.04782119,0.03119494,0.03714795,0.05414729,0.07791021,-0.02568592,0.05168079,0.07569095,-0.04464529,0.01899906,0.01376178,-0.00634517,-0.02517041,-0.04370290,-0.07509738,0.02382299,-0.01282194,-0.00611573,-0.08153901,-0.04797120,-0.02158738,-0.04516956,0.00613624,0.04607177,0.07496226,0.06850310,0.06964411,-0.06224476,-0.07116280,-0.05677003,0.08204608,-0.06833056,-0.07796826,0.05656172,0.07539292,-0.07910851,0.02593551,0.07094084,-0.04501221,0.02129002,0.02858774,-0.02834708,-0.01241360,-0.01985791,-0.03457323,-0.04042240,-0.07457455,-0.07270440,-0.07649093,0.04914467,0.01779907,0.07859014,-0.01555458,-0.02099057,-0.02727153,-0.07919415,-0.03923220,-0.04049696,-0.00837326,0.07934254,0.02338639,-0.04999032,0.06725983,0.00888922,0.04452628,0.06112556,0.02196170,0.05569786,-0.03543969,0.01880413,0.02067280,-0.00444302,-0.06921767,0.00334243,-0.03762268,0.00791908,-0.06600655,0.05135046,-0.06184510,0.07247680,0.03162396,-0.00112302,-0.01945862,0.06619060,0.05941378,0.00012980,-0.00891586,0.03565353,0.06115364,0.06492546,0.02698152,-0.03865598,0.06722471,-0.04774974,-0.01884901,-0.02362789,0.06172246,-0.02163967,-0.05041371,-0.00414405,-0.04014301,0.00567237,-0.01803213,0.05839071,-0.02131604,0.00194705,-0.03845127,-0.06792447,-0.01019531,0.05601302,0.04459383,-0.02048422,0.00448932,-0.04915323,0.05618721,0.03963025,0.07490365,-0.03578109,0.01265895,0.05490211,0.00126898,0.06272952,-0.06132859,-0.03479140,-0.02458208,0.07366115,-0.01529287,-0.06586450,-0.01150126,-0.08215731,-0.06403849,0.04133169,-0.07846604,0.04949035,0.08023112,-0.05576687,-0.07314821,-0.01449687,0.02055851,0.01231845,0.07068491,-0.07121795,-0.02567327,0.03939824,-0.08163121,-0.06724964,-0.02270347,-0.00084257,0.02246134,-0.06498889,0.02126437,0.01402041,0.05693282,-0.05030894,-0.00436591,-0.06978920,-0.04027249,0.02759676,0.06040868,0.02005763,-0.04816456,-0.06548986,-0.01630361,-0.02756846,0.04831044,0.06093912,-0.06216542,-0.04662132,-0.04216941,-0.08074708,-0.07731683,-0.07519224,-0.01029839,0.06562534,0.06320451,-0.05110132,-0.05866034,-0.07240505,-0.00826427,-0.04265377,-0.05152874,0.06046255,0.06656070,0.05101313,0.05368680,-0.04860718,0.05610955,0.02256434,-0.05319060,-0.06153980,-0.05260241,-0.06505729,-0.00869823,0.07535854,0.03837535,-0.04350284,0.07645833,-0.05904263,-0.04119037,-0.03400432,0.00412866,-0.07449289,0.01519816,-0.06556087,-0.01499376,-0.06928420,0.01318968,-0.07780150,-0.02454416,-0.00328586,-0.00137784,0.04303844,0.04424110,-0.02972191,-0.02664993,-0.05987377,0.06055722,-0.06294627,-0.06001009,-0.07911766,-0.05161962,0.07611881,-0.00169294,0.04222954,0.00314766,0.07688007,0.01429629,-0.01134621,0.02578955,-0.03318031,-0.01457086,-0.04176860,0.03385315,-0.05705875,-0.00314444,0.00112379,0.03542285,-0.02407378,-0.00049759,-0.05863779,-0.01527566,0.01787949,-0.04439548,-0.01411746,-0.07988618,-0.02657425,0.00685810,-0.07938517,0.01332533,0.05183877,-0.00347525,-0.05407949,0.02581958,-0.00974011,-0.02820408,0.00819576,-0.04384254,0.06205179,0.07950214,-0.03602489,0.07944757,0.01839969,-0.05131242,-0.01596060,0.00297630,-0.07493027,-0.05089708,0.03193630,-0.04177979,0.00741106,-0.07941729,0.00389489,-0.04786649,-0.07940082,0.04851401,-0.05454750,0.01701415,-0.07108924,-0.07763126,-0.07014117,-0.01051559,-0.01977216,0.04416166,0.08064862,0.04154375,-0.06351596,-0.04005356,0.06146501,0.07963042,0.03366653,-0.06879927,-0.07767722,0.07994413,-0.03923696,-0.04293302,0.07578067,-0.01686210,0.01414009,0.00071906,0.07216109,-0.02198423,-0.06148156,0.06140408,0.01132476,-0.02315408,0.07732007,0.03801171,0.06793445,-0.02139740,-0.00597808,0.03160045,0.04795589,-0.01153100,0.00318728,0.03372147,-0.02746117,-0.05658993,-0.01163647,-0.02762236,0.04219469,0.06124604,-0.04796692,0.03416332,-0.01342445,0.04709140,-0.05495160,-0.00984867,-0.01318862,0.03427573,-0.06740095,-0.04385974,0.05535030,-0.03221660,-0.05105465,0.08217040,0.06423432,-0.01013292,0.02402317,0.00278762,0.00608847,-0.00955389,0.06936654,-0.03522123,-0.04111677,-0.00895304,0.08067709,-0.06736557,0.06727032,-0.04795001,-0.05132147,0.07925975,-0.08017628,-0.03880113,0.00212070,0.00723881,0.06991997,-0.08054596,0.00007122,-0.02791945,-0.06222810,-0.07606158,0.02746711,-0.06185792,0.06216124,-0.04792732,-0.00662477,0.00792786,0.03664283,0.06472360,-0.03149747,0.03467877,-0.02397664,0.06907690,0.02737905,-0.08181901,0.02217596,0.04592064,0.00576871,-0.00839155,-0.03054356,-0.03202350,-0.04811096,0.01026087,0.03724353,0.05806318,0.01016331,0.06125927,-0.07066941,-0.01074602,0.04200273,0.02223567,-0.00237924,-0.07793157,0.03431985,0.06359319,-0.07960071,-0.03830433,0.03614119,0.03467113,0.07414812,-0.04689682,-0.07460680,-0.03540781,-0.02367805,-0.00381726,-0.07418048,-0.07715156,-0.06512212,0.05314195,0.01146883,-0.07697298,0.03949261,-0.01127001,0.07393819,0.05334331,-0.07739607,0.01111148,-0.01700015,-0.07539834,0.03015013,-0.00123762,-0.06025933,0.07551949,-0.07523258,-0.08010918,0.05641359,-0.02311405,0.05250786,0.06617713,0.04121404,0.06689256,-0.06879077,0.07572082,-0.06057985,-0.07319810,0.06408893,-0.04469591,-0.04513245,-0.04391849,-0.00651941,0.04000229,0.07899195,-0.05469977,0.04435270,-0.02718842,-0.05447642,0.03292944,0.04638371,-0.00327111,0.05576278,0.01581690,0.05614750,0.01994559,0.07424654,0.02403269,0.04260490,0.05677326,-0.01260440,-0.02732342,0.02843846,-0.01511479,-0.07889625,-0.02489015,-0.03443772,-0.04580436,0.01593446,-0.04131472,-0.07323243,-0.03395246,0.04777284,-0.07986034,0.03707574,-0.03200127,0.07763375,-0.00034063,0.03223310,-0.08188507,-0.04743085,0.04428235,0.07272075,0.06869456,-0.05265056,-0.05890107,-0.07428095,0.00926940,0.06057987,0.01392086,-0.06078719,-0.07440266,-0.03261385,-0.05410922,0.00080024,0.02136089,-0.06350887,-0.01589417,0.04036345,-0.05095948,-0.01254436,0.01883850,0.00888979,-0.07746790,0.03146217,-0.06307156,-0.04870951,-0.02944181,0.04425126,-0.00693396,0.01243165,0.00785011,0.00823854,-0.00722443,0.05990918,-0.08171383,0.06325391,0.07993941,-0.04115030,-0.01540668,-0.01806235,0.02792562,0.04758486,-0.07856084,0.00802880,-0.05762072,-0.05789172,-0.05374386,0.01390939,-0.04139528,-0.03547740,-0.05205505,0.02866923,-0.05813603,-0.05436939,0.03629798,-0.06121211,0.02613404,-0.03943235,0.03818708,0.06417057,0.06213096,0.03886181,0.00914186,0.06868893,-0.02593127,-0.06118885,-0.05413523,0.04861259,0.00468984,-0.04671601,-0.03767764,0.03560691,0.00574034,-0.03018837,-0.07568784,-0.02269777,-0.05355512,0.03204000,-0.02464198,-0.07343960,-0.01880548,0.03108337,-0.00122450,0.01194292,-0.07583589,0.07847066,0.07401589,0.01810048,0.05434439,0.01043970,0.05316974,-0.05178662,0.07641253,-0.01836901,0.07958782,-0.01595583,0.03479651,-0.05907960,0.00374679,-0.06561893,-0.06787699,0.06309666,0.07507843,0.04765961,-0.01044875,-0.08195227,-0.03804102,-0.04382667,0.01679571,0.04744306,0.05843037,0.04261173,-0.00935405,-0.03230423,-0.01173925,0.07178017,0.00249306,0.06944151,-0.08223586,0.05717841,-0.07167577,0.03912783,-0.00617006,-0.03660459,0.05966446,0.04025701,-0.06381594,0.03011792,0.00220780,-0.05707415,-0.06362920,-0.04660187,-0.06878517,0.01645301,-0.00945573,-0.00945561,-0.07815480,-0.05995664,0.08095606,0.01808457,-0.01165749,-0.07693893,0.03825155,0.00723457,0.06088051,-0.00094441,-0.05970336,0.00535455,0.04991983,0.07151447,0.07646118,0.02969480,-0.01139095,-0.01684132,-0.03652272,0.04148848,0.06442681,0.03499945,-0.03024783,-0.04127296,-0.05226019,0.07023139,-0.01231842,0.06427221,0.06042095,-0.06540421,-0.03509874,0.04128100,0.05899756,-0.00208785,0.01011597,0.03732357,-0.02057854,0.00863044,0.01634830,0.01914264,-0.00852141,-0.03487806,-0.06211322,-0.07009937,0.04661050,0.03963748,0.05140072,-0.00228792,-0.06644771,-0.02377589,0.00683495,0.07008286,0.08118610,-0.03350248,0.08067863,-0.03675012,0.07714935,0.05997153,-0.01287489,0.06301850,-0.06490402,-0.07594563,-0.02380496,-0.02031469,-0.00169310,-0.05379762,0.01988553,-0.01382697,-0.01427104,0.02432185,0.02723435,-0.04890157,-0.03247867,-0.02108442,-0.00572090,-0.04544327,0.01872968,-0.04484311,0.00212575,-0.06916086,0.07071339,-0.05756120,0.01569783,-0.08219264,0.01285830,0.00653175,0.04195655,0.05673234,0.05255386,-0.05565117,-0.01155596,0.02543956,0.06385249,0.03553012,-0.02062250,0.06907475,-0.02310617,-0.01386578,-0.01524036,-0.04346431,-0.06912246,0.00645585,-0.03260717,-0.05366250,-0.08030771,-0.01112714,-0.01548919,0.07205431,0.04983287,-0.00001469,0.04781510,-0.07864240,-0.04283701,-0.00992816,-0.05155698,0.02311509,-0.07283136,-0.02365590,0.03419799,-0.03512634,0.01419619},
			{-0.03421858,0.11554711,0.06030107,-0.03825725,-0.08273577,0.01019272,0.03156255,-0.03226524,-0.05529638,-0.01570774,-0.02526963,-0.10866285,-0.04838810,-0.11563244,-0.06413943,-0.05151500,0.01696000,-0.07877571,-0.04221248,0.00646129,-0.09587049,-0.14762338,-0.06693506,-0.02471262,-0.09660078,-0.02810919,-0.10157941,-0.11528163,0.09009499,-0.03935339,0.04260129,-0.02087034,-0.04952433,-0.09080333,0.01918468,-0.08551554,-0.02790846,-0.08697742,-0.02886782,-0.10515449,-0.05862929,-0.10038425,-0.15262064,-0.03686159,-0.10664988,-0.11080513,-0.02499389,-0.11681715,0.01908491,0.01725816,0.07748996,-0.06337446,0.02117137,0.07668319,-0.07907324,0.01587419,-0.02683727,-0.06039844,-0.09304118,0.04554899,-0.01977716,-0.00473179,0.04479140,0.03176709,-0.05685845,-0.04654343,-0.00478011,-0.07113446,-0.05221980,-0.07089318,-0.06585316,-0.01728196,-0.00307666,0.00357864,0.01659061,-0.02387336,-0.07875066,-0.05768389,0.07038885,0.01612383,0.06972359,0.08704369,0.04329179,-0.04053481,0.07690389,0.06941757,0.02119816,0.01336579,-0.00736585,0.02076195,-0.04272845,-0.04937673,-0.07377992,-0.08796526,0.02054365,-0.02731050,-0.08066402,-0.06299618,-0.14196894,-0.02489408,0.00405858,-0.02690767,0.00768699,0.00683956,-0.01237919,0.01973682,-0.00410200,0.08563757,0.08516414,-0.05224337,0.02869168,0.11320415,0.07615650,-0.02722739,-0.04518789,-0.04364197,0.07271143,-0.03757909,0.00632815,-0.01010296,-0.01841345,-0.09962888,0.00592832,-0.03220534,-0.06451257,-0.06931774,-0.04934860,-0.01158190,0.07032214,-0.05950211,-0.00190010,0.04948541,0.04250696,0.04546396,-0.00801206,0.06719768,0.03198231,0.07964037,0.02717617,0.04497457,0.03689812,0.05267121,-0.01702460,0.00805369,-0.03980168,0.05799548,0.02583891,0.07234718,-0.03288054,0.05200848,0.00798369,-0.10265846,0.03659588,-0.03269676,-0.03030299,-0.06300605,-0.03090867,-0.06890897,-0.05455581,-0.02658346,-0.02243343,0.03488861,0.07152168,0.15292618,0.06574211,0.09347182,0.11399744,0.17146264,0.01172780,0.08128946,0.08454650,0.10600160,0.04182321,-0.01486714,-0.06263845,0.07798140,0.01280020,0.02859043,0.06131470,-0.01711560,0.03706075,0.07951535,-0.05114484,-0.04408276,0.02689495,0.04652524,0.01139842,0.00042408,0.08052197,0.08933788,0.13942887,0.11033430,0.15978909,0.13847485,0.15567820,0.10000306,0.01910893,0.04035956,0.03927098,0.06815889,0.06207900,-0.03879235,0.02431927,-0.08818150,-0.03578934,0.07256436,0.07197424,-0.07259269,-0.02108886,0.09920111,0.00513993,0.04790385,0.05139031,0.01052575,0.05575329,-0.01885148,0.03450461,0.10588498,0.12211399,0.18730861,0.17246702,0.14315447,0.18288013,0.17665763,0.04951441,0.03204564,-0.05247181,0.04468659,0.10238807,0.02198582,-0.03970482,0.01407576,0.00412232,-0.07212497,0.02157426,0.01374361,0.08378009,0.00107786,-0.07169582,-0.03858725,-0.02449070,0.02123193,-0.01675442,-0.05192132,-0.00658808,0.02370308,0.09662048,0.13140933,0.16246384,0.18904310,0.06914306,0.08661030,0.09432008,0.01011582,0.00754429,0.03652580,0.01516735,0.00073553,0.06422416,0.08892696,0.02834814,-0.02488920,-0.02398907,-0.08517738,-0.02361631,0.03309608,0.03619185,-0.11792058,-0.02411511,0.01813326,0.02679699,0.02854097,0.02821441,0.10701387,0.01492487,0.09464009,0.08091448,0.09205132,0.12496932,0.17838103,0.02345512,-0.05383686,-0.05882607,-0.00338120,0.07213169,-0.01645593,0.07504929,0.04708338,-0.09369920,0.01010070,0.00480354,0.09284622,0.01434094,-0.01772760,-0.00609974,-0.10108383,0.04409948,0.01179645,0.02963362,-0.04932295,-0.05003981,0.00044596,0.05490417,0.06031337,0.04136805,0.15969930,0.12885788,0.10401902,0.04369858,0.02647711,0.05847326,0.07833622,0.06452720,0.00062127,0.04012271,-0.07326650,-0.04998228,0.07829881,-0.03771282,0.07865465,0.12332300,0.05106564,-0.03778828,-0.04234192,0.00421784,0.09837923,-0.08025132,-0.01154458,-0.10082544,0.09215233,-0.02562213,0.02847784,0.08674830,0.10171559,0.11905317,0.18347988,0.00045063,-0.03495398,0.07782278,0.09568730,0.06029301,0.13522878,0.09974294,0.09700520,-0.02323055,0.09692641,0.04870685,0.10899007,0.06861637,0.07782628,0.03608881,0.02710963,-0.02221411,-0.03758501,0.02596413,-0.11950134,-0.08493197,0.03589734,0.00325868,0.04916148,0.01480800,0.04553773,0.09488683,0.17146863,0.01392044,0.04198729,0.00647693,0.04234579,-0.03809843,0.02919903,0.04713273,-0.05828664,-0.01603139,-0.00789705,0.05497957,-0.02791789,-0.00279326,0.02044015,-0.00163102,0.01344190,-0.03554428,-0.02238416,-0.08290704,-0.08672480,-0.07533354,0.08386068,0.11315949,0.03384228,0.12258112,0.05762900,0.03967897,0.00957103,0.05739368,-0.03167645,0.06252889,0.07394164,-0.03127437,0.06014617,0.01744423,0.08200868,-0.01643163,0.05250625,0.07533979,-0.04968803,0.02600616,0.05945431,-0.04840592,0.02408223,0.07407588,-0.06386611,0.02210792,0.02130589,0.08017598,-0.05838230,0.00376128,0.00542944,0.03750380,0.09501597,-0.04963579,0.08669340,-0.02754065,-0.04334710,0.03796411,0.02021082,0.10399262,0.01669141,0.00967056,0.09719203,0.00662101,-0.03828152,0.06923392,0.09737908,0.08170480,0.05628618,0.03609423,0.04522408,-0.01157063,-0.06439170,-0.07896726,0.07943773,-0.08138487,-0.01899203,0.02778511,-0.05315616,-0.04461053,-0.06688599,0.06777503,0.03524938,0.08951486,0.01296220,0.05994309,-0.09334835,0.01995296,0.02669804,-0.04617883,-0.05350887,-0.03416136,-0.04175332,0.00688346,0.03064171,0.06060928,0.03345044,0.01168280,0.11989654,0.05915321,0.05080628,0.03271103,0.05402631,-0.07241267,-0.05581342,0.04421644,0.01733488,-0.04644011,-0.10001044,-0.10239527,-0.09815592,0.01735322,-0.00754320,-0.04206665,-0.00103590,0.01674212,0.07321722,0.04509151,0.08455700,0.04504827,0.00569850,0.03613677,-0.01496443,-0.00504011,-0.02762983,0.01363265,0.05215668,0.08838718,0.06628049,0.00214950,-0.04798357,-0.02335268,0.02016684,-0.04434415,-0.08935165,0.04650591,-0.07179169,0.02787446,-0.03236615,0.01342924,0.00711350,0.02020408,-0.03464120,0.08162495,0.02125147,0.02896910,0.08790937,0.12150536,0.06453587,0.05744592,0.03688553,0.05555595,-0.02162169,-0.02116603,0.09816866,0.03572053,-0.04486738,0.04581508,0.02785288,-0.00089064,-0.04264188,-0.02987668,-0.03607963,0.01800883,-0.01782889,-0.04009337,-0.06525165,0.02337548,-0.04614217,0.01999997,-0.01468937,0.08740640,0.11868721,0.01292787,0.04650923,0.07009189,0.16426521,0.04668328,0.01825834,0.01919372,0.05868638,0.13289231,0.02386885,0.02649758,-0.02008309,-0.06432853,-0.04386412,0.02007392,-0.05623971,-0.12732624,-0.12072943,-0.02214525,-0.07495940,-0.10235337,0.02804094,0.04956058,0.08707099,0.12852062,0.10237575,-0.00724934,0.11017248,-0.03717909,-0.00947330,0.04320732,0.15329193,0.17040251,0.10574623,-0.03277443,0.07620160,0.05751563,-0.00998051,0.05679760,0.03613699,0.04526060,-0.03240087,-0.06134420,-0.08866627,-0.10943801,-0.08436269,-0.08663416,0.00651702,-0.04932961,-0.02452747,0.05818958,-0.04861148,0.04451193,0.09248333,0.11479385,0.10459825,0.02921866,0.08971330,0.07608966,0.05287008,0.05662736,0.09401345,0.01836688,0.10267100,0.03454914,0.13036521,0.07964440,0.00736997,0.04542011,-0.05711203,-0.00883077,-0.04989977,-0.17423679,-0.10946191,-0.12399331,-0.07709786,-0.01991290,-0.11126182,-0.11413903,0.03443941,-0.04058719,0.09661049,0.10058807,-0.01843399,-0.00902765,0.04368201,0.08598144,0.02852846,-0.00249194,0.09321813,0.04345036,-0.02172288,0.08775327,0.15594770,0.07460593,-0.02178786,0.01881493,-0.11442418,-0.13149148,-0.07486805,-0.02126057,-0.11090643,-0.09835409,-0.07188510,-0.02298157,-0.15332648,-0.11514154,0.01689940,0.02861069,0.05399255,0.04031945,0.08106327,0.00292143,-0.01712278,-0.01571856,0.06908492,0.02522265,0.04235042,-0.00183085,0.03366807,-0.00401339,0.09165329,0.06842610,0.00878259,-0.04976321,-0.11815872,-0.09510979,0.02968789,-0.01010758,-0.10679111,0.00567231,-0.00757986,-0.10539190,-0.00939111,0.08304469,0.09452547,0.02337443,-0.02256032,0.01211304,-0.07743265,0.05365352,-0.04194932,0.01277493,0.08214856,0.08263027,-0.03200108,0.12619363,-0.01145939,-0.02768445,0.04409103,0.00736748,0.01980610,-0.03162210,-0.04727731,0.00586681,-0.15212727,-0.10364819,-0.03106305,-0.16475686,-0.14338236,-0.17864640,-0.15004516,0.04563348,0.01055389,0.05627944,-0.02111795,0.02633421,-0.06336059,-0.07699423,-0.01282907,0.01677823,-0.04022815,-0.05976467,0.08895689,-0.03076845,-0.01664978,-0.04544599,-0.00220065,0.02295299,-0.08204827,-0.00838281,-0.13264655,-0.17966697,-0.05725172,-0.14339033,-0.12419242,-0.15745004,-0.18110779,-0.11835481,-0.09075209,0.09372546,0.07648524,0.06846500,0.05010374,0.08492941,-0.08163559,0.06359295,-0.09790234,-0.02434001,-0.07248501,0.01234284,-0.09006844,-0.04414318,0.00100789,-0.05895172,-0.06981818,-0.06273504,-0.02544788,-0.10063461,-0.21669537,-0.11403354,-0.18007365,-0.16283605,-0.09159157,-0.17788462,-0.10545504,-0.11030310,-0.24644014,0.07613062,0.11677986,0.11355586,-0.01131465,-0.00028533,-0.08162761,-0.04965910,0.00739986,-0.11485016,-0.10292493,-0.12711966,-0.04566796,-0.09966217,-0.02296047,-0.03805264,-0.11849377,-0.18121944,-0.18590390,-0.09872362,-0.12546779,-0.27045047,-0.31375426,-0.21067752,-0.19278766,-0.19531146,-0.12515226,-0.18686838,-0.21658619},
			{-0.04668635,-0.05139253,0.03125791,-0.07501040,-0.02460103,-0.02417369,-0.08725014,-0.06236511,-0.05320801,0.05157359,0.02162903,-0.00517867,-0.10123405,-0.06165759,0.02273245,0.02018518,-0.09926093,-0.04419441,-0.04823667,0.00036028,0.00314164,0.03490537,0.01512918,-0.01529488,-0.10385714,-0.02737875,-0.05964729,-0.06638215,-0.00138211,0.06845757,-0.01516729,-0.03852671,0.01544098,-0.00943969,-0.06986237,-0.01473923,-0.08390774,0.02323993,0.02055359,-0.07994696,-0.03170511,-0.00497890,-0.05825510,0.00239495,-0.06265385,-0.01192869,0.02368202,0.01689418,-0.05673295,-0.00425071,-0.07309416,-0.01976942,-0.01880679,-0.06858032,0.04489486,-0.06690029,0.04630788,-0.01622532,-0.03137001,0.03542062,-0.05976236,0.03301449,-0.03319041,-0.01914488,0.03613335,0.04042579,-0.05165064,-0.00222748,-0.09589952,0.01412492,-0.06044082,-0.09612714,-0.09562445,-0.09940068,0.04820389,-0.07381076,-0.06713018,-0.03772090,-0.07254481,-0.01897278,-0.02487844,-0.04367482,-0.01818383,-0.00793272,0.02031121,-0.02140719,-0.00966532,-0.04090052,0.00103614,0.06247056,-0.08322967,0.00015714,0.06151483,0.05174763,-0.09281147,0.05696533,-0.01640386,-0.01263020,0.00995516,-0.01837466,0.05772105,0.05379629,-0.06615260,-0.02489483,-0.08717094,-0.07100392,0.04568421,0.02668959,0.00886093,-0.04442892,0.03862241,-0.07394104,-0.05642006,0.02321341,0.04917232,-0.00810029,0.06676832,-0.01360248,-0.08023366,0.00498138,0.03741648,-0.05443850,0.05335736,-0.02740184,-0.00677555,-0.04761798,-0.03272342,0.01491460,-0.05120987,-0.00994333,-0.01654178,-0.06707507,-0.06135033,-0.02650805,0.02122690,-0.01703390,-0.05710113,-0.04622179,0.04289152,-0.03433499,0.08512172,-0.03784126,-0.07319973,0.07784705,0.01101104,0.01853207,-0.07259898,-0.06145930,-0.01893893,-0.06959945,-0.05356989,-0.08506496,0.00976278,0.02264348,-0.02955970,-0.03557670,-0.09119686,0.06190665,0.05541882,-0.01081263,0.04458768,0.06566152,0.07629404,0.03257101,0.00755007,-0.06311623,-0.00417808,-0.02179017,0.09804094,-0.07180422,0.06957431,0.08940148,-0.06626158,0.08778708,-0.05829346,-0.00382241,-0.04717555,-0.00070383,-0.02350990,-0.04471810,0.02802534,0.07843573,0.02920480,0.03317076,0.05423591,0.05921131,0.01262430,-0.01293101,-0.04062412,-0.01722136,-0.01537423,0.07907518,-0.01495988,-0.01902116,0.02723817,-0.01402420,0.08833097,0.01580092,0.07678173,-0.02912049,-0.03850851,0.08383981,0.05149708,0.04034506,0.00291768,-0.06332899,-0.07251376,-0.00415893,0.05573972,-0.02478567,-0.04198137,-0.07374008,0.05968644,-0.03146939,0.02408772,0.05039078,0.02428895,0.03823258,0.06113782,-0.03313760,0.04272748,-0.05179827,0.00491893,0.00237989,-0.06660624,-0.02779927,0.06997198,-0.06177224,-0.07591405,-0.02463270,0.06634590,0.07035056,-0.07264404,-0.03930959,-0.08975255,-0.05870098,-0.00245996,-0.01842994,-0.07028737,0.06704116,0.04320332,0.04403329,-0.04891205,0.03048563,-0.07079749,0.06391467,0.06802903,0.03109803,-0.00923618,-0.08008523,-0.05247534,0.08333784,0.04645532,-0.05572284,0.03902986,-0.01416252,0.05084997,0.02482805,0.00779600,0.06189405,0.06791505,-0.00528729,-0.01123266,0.01936597,0.02777318,0.03220735,-0.00294655,0.05783516,0.03272659,-0.01011799,0.03414667,-0.09316432,0.03948922,0.00889827,0.05687905,-0.01137772,0.05093673,0.00485143,0.06375110,0.00896734,0.01062897,0.02833000,-0.02565759,0.03484459,0.02615245,0.04606248,0.06406903,0.06355318,-0.02971546,-0.04674298,0.07410326,0.05686545,-0.02537697,0.01117369,0.02086272,-0.05963223,-0.03343846,0.00132277,0.01853597,-0.08644355,-0.04177644,-0.04520511,0.06764555,-0.03448471,-0.06406495,0.05953360,0.02225278,0.06356892,0.03572534,0.08352699,-0.00167315,0.02405654,0.07639468,0.09022696,-0.00269204,0.04540174,-0.07935096,-0.03891135,0.07904170,0.09636915,-0.01195927,0.03115524,0.02278675,0.00812467,-0.04784646,0.02600035,0.07596083,0.00735855,0.02743792,0.00992156,0.03789861,0.02948952,-0.08075442,-0.04226443,0.05340480,-0.05562463,0.02644815,-0.01493729,0.08270331,-0.03981768,-0.01733511,0.03667238,-0.01031473,-0.03572362,0.02791164,-0.06194976,0.01142185,0.08289256,0.02871082,-0.04057391,0.02240019,-0.06103763,-0.00795656,-0.00146703,-0.07093831,0.03505800,0.06387584,0.01913043,-0.02035303,-0.03073342,0.09738357,0.00273249,0.09038752,-0.03952631,0.03269695,0.00020207,-0.03906609,-0.01234858,-0.06111826,0.08743798,0.06636522,-0.06769150,0.06063664,-0.04503378,0.02135274,0.05593782,0.07067779,0.04074857,-0.05622124,0.07759067,0.05634445,-0.04067085,-0.06994534,0.00380530,-0.01264140,0.04567680,-0.02524186,-0.01068335,0.03078509,-0.04449386,0.04781805,-0.03268880,-0.07073047,-0.00941758,-0.03360963,0.08639690,0.02347961,-0.04610334,-0.02035093,0.07620858,0.03269491,0.04938002,-0.04755481,0.06185831,0.05822156,0.08580510,0.08050238,-0.04300557,-0.03325720,-0.03148586,0.03821718,-0.05480407,-0.03597881,0.08485341,-0.02049126,-0.00618248,0.03272176,-0.05737820,0.01872708,0.00362235,-0.06982624,0.08636365,0.01176737,-0.02298171,-0.03441776,0.06420175,-0.01653230,0.00320915,0.01435812,-0.03542938,-0.06133177,0.05034243,0.01684705,0.02131150,-0.04355050,0.12345213,0.03927355,-0.04042749,-0.03733455,0.01253607,0.00395681,0.09141678,-0.02132916,0.00769890,0.08306109,-0.06156593,0.05682270,0.06626415,-0.03998521,0.01428548,-0.07699533,0.00323684,0.03953178,0.01274376,0.00603608,0.01227927,-0.03123912,0.05988833,0.00092704,0.06241125,0.10183998,0.05097114,0.08170936,0.01539868,-0.04085173,0.04347537,0.07197078,0.01536628,-0.06209453,0.04675356,0.04994844,0.04925818,-0.00779679,-0.05414388,-0.06732213,-0.00573890,-0.04657311,0.03655790,0.04364886,-0.05286090,0.07975574,0.00902506,0.06829143,0.00305671,-0.00489718,0.03003671,0.03315341,-0.02706145,0.00483764,-0.02296782,0.07433101,0.09409460,0.02657968,-0.02056869,-0.02779985,-0.03795074,-0.04448375,-0.04274585,-0.00044494,-0.01903745,-0.05626123,-0.02167156,0.02336417,-0.00722781,0.00185586,-0.00109571,0.01884526,-0.04060207,0.00536495,0.03838602,0.03813912,0.02851787,0.06105334,0.02031404,-0.04435906,0.01007432,0.06294271,0.06262593,0.01054827,0.01585232,-0.01725361,0.02728117,-0.03794361,0.02176763,0.00067114,-0.06684575,-0.06364871,0.05468143,0.08214930,0.01830619,0.06239605,0.03417951,0.01749164,0.05641172,0.03879992,0.05983350,0.00974439,0.01912001,0.05765048,0.06677875,0.03369715,-0.01185538,0.08385021,-0.03780145,0.05030729,-0.00010521,0.00524119,0.02727412,0.04078344,0.05487465,-0.03216482,0.09488008,-0.01090594,0.02476378,-0.06603113,-0.04677252,-0.01490656,0.08004143,-0.06380346,0.04146275,0.05802713,0.02409115,0.06934095,-0.00473441,0.06591104,-0.00074663,0.08196149,0.11061236,0.06550162,0.10089161,0.13193151,0.00522163,-0.02715754,0.03306665,0.05106138,-0.03019859,0.10457093,-0.03399279,0.03165440,0.07713987,-0.04308907,0.06718762,-0.09172057,-0.02773910,0.01677499,0.07075444,0.07769968,0.00022196,-0.02477132,0.00389344,0.04442616,0.08552219,0.05791597,0.04161038,0.07434525,-0.04734153,0.05813437,0.04578759,-0.03137301,-0.03594321,-0.04472548,0.04687928,0.06433479,0.12000390,-0.03523618,0.00874752,0.01127104,0.06836420,-0.04569247,-0.03673913,-0.01910311,0.05774992,-0.04801392,-0.05457642,0.06017206,-0.00881243,-0.04819172,-0.07491516,0.07805503,0.02893043,0.02681349,0.08009763,0.08487337,0.01291441,0.06140176,0.08098595,-0.04046009,0.10910165,0.07617796,0.07463800,-0.04056911,0.09986570,0.08872750,-0.00685166,0.02577022,-0.02930958,0.05507385,-0.07658227,0.03987632,-0.02786361,-0.07206999,0.02691129,-0.01022499,0.01715389,0.02753193,0.04021873,-0.06886768,0.04500560,0.07951178,-0.03167357,0.04090203,0.00935339,-0.07440171,0.05624903,-0.01162224,-0.03820730,0.06163537,-0.06276658,-0.06853689,0.09625031,0.01575244,0.00710080,0.02207633,-0.01129501,-0.02434483,0.08254566,0.07614982,-0.04367632,-0.06845045,-0.00007182,-0.05275809,0.05176681,-0.02234306,-0.00186010,-0.00195072,0.08592750,-0.05327330,0.04804761,-0.03273671,0.08108706,-0.08890149,-0.00339486,0.04683188,0.04228580,-0.00755038,0.07310288,-0.01868849,0.07584089,0.04597565,-0.00371079,-0.07704634,-0.04312320,0.05502870,-0.07850032,0.03767627,-0.07686789,-0.05466788,-0.05814095,-0.03052284,0.03510503,-0.03919607,0.00596435,-0.07726941,-0.06725592,0.06698591,-0.04917291,0.03255017,0.03061469,0.02113914,0.04091086,-0.05979922,0.05446600,0.02909635,-0.07445347,-0.06121187,0.01263741,0.00196614,-0.08823075,-0.08275206,-0.03369205,-0.10206854,-0.04439903,-0.04851896,-0.06937215,-0.01824245,0.01671975,-0.03556443,-0.07670520,0.05573737,-0.04993415,0.05301673,-0.02468981,-0.06283008,0.02449013,0.02928001,-0.03441546,-0.00928922,0.04689749,-0.07356013,-0.05704293,-0.04525723,-0.09701079,-0.04531702,-0.08978583,-0.05883267,-0.04221210,-0.07566079,-0.06198496,-0.11680114,-0.13361219,-0.03170492,-0.03574555,-0.02655539,-0.05927222,-0.04030646,0.00264102,0.02422000,0.00955230,-0.06490565,0.03235499,-0.02511818,-0.00381103,-0.02711182,-0.00055998,-0.07044550,0.02477220,0.00368264,-0.01810550,-0.03595449,-0.02420411,-0.09283500,-0.10677195,-0.04047296,-0.01737870,-0.02093518,-0.13986601,-0.02005406,-0.16391213,-0.11625722,-0.01779271,-0.11927588,-0.02197567,-0.00118434,-0.02112947},
			{-0.01040723,-0.06790569,0.04283015,-0.02227011,-0.01741889,0.08650216,0.10163527,-0.02270131,0.00347722,0.07772275,0.06417034,-0.04462374,0.02642716,0.08775905,0.06848272,0.09022022,0.00393475,-0.02446427,0.11197195,0.06825856,-0.03564465,0.07689794,-0.01946070,0.02981849,-0.06208103,-0.06155748,-0.04137308,0.07301844,-0.06258732,-0.08400589,0.04963571,-0.03103679,0.01205781,0.02362738,-0.03663715,0.08502331,0.08413471,-0.02570861,0.03847299,-0.01438676,-0.00855548,0.08576469,0.13890319,0.00477385,-0.01491630,0.09294710,0.04408738,-0.00666539,-0.03487728,-0.00143379,-0.05526625,-0.05291511,0.00758319,-0.05646893,-0.00664912,0.05595687,0.00941009,-0.02064364,-0.01420844,-0.07003896,-0.02696561,0.08401089,-0.07660165,0.00728749,0.03756800,0.00682527,0.11599473,-0.01163583,0.10252352,-0.01212141,0.10178120,0.00868258,0.03513233,-0.06281723,-0.02926046,-0.01922365,-0.00826096,0.06641399,0.05002699,0.01521376,-0.08832441,0.02495394,-0.01050810,0.00917650,-0.00943802,-0.03093501,-0.05490193,0.06476653,0.01399410,0.04489327,0.07375494,0.05747719,-0.05188424,0.01586591,0.11900739,0.07684838,-0.01975291,-0.03223972,-0.04400058,-0.04488882,0.06386577,-0.06091341,-0.03259657,-0.03183858,-0.06157187,-0.07624586,-0.06891941,-0.08647055,0.05214084,-0.01844477,-0.00859662,-0.04652287,0.02189467,-0.04514092,-0.02071508,-0.05366104,-0.07612634,0.01266601,0.05625478,0.10025182,0.04337279,0.02554543,0.07437197,0.06891148,-0.00134607,0.03920257,0.01735799,-0.00179303,0.06111800,-0.04296185,0.05521364,0.03617221,0.01506923,-0.08247419,-0.00797865,-0.02066110,-0.06344578,-0.08006933,-0.09549984,-0.14260054,0.03093502,0.04378485,-0.06593163,0.06018787,-0.06066490,0.01904075,-0.04170416,-0.05987712,-0.02793587,0.07032536,-0.06311806,-0.01051844,0.08966786,-0.03899288,-0.01373541,0.09245607,0.01426400,-0.01889103,-0.03136569,-0.06759369,-0.08768447,0.01544570,0.02155446,-0.09098580,-0.10105840,-0.06158963,-0.11414226,-0.03985132,0.02326314,-0.07194860,0.02259171,0.03946458,-0.04891507,-0.06594599,0.05181952,0.04938443,-0.05142999,-0.05761906,-0.02444438,0.03145932,0.04354102,0.03311221,0.02356324,0.05316566,-0.01500309,0.01887222,-0.00409590,-0.08891255,-0.02902174,-0.01569356,-0.10114805,-0.08990800,-0.17534834,-0.01052691,-0.07762440,-0.09056140,-0.01836836,-0.06011412,-0.00930387,0.01721734,-0.01546855,0.01240142,-0.05158160,-0.01017653,0.00562087,0.02266018,0.03479484,0.05790193,-0.00278269,0.01517924,-0.07668262,-0.01511036,-0.00710246,-0.05387917,-0.08004922,-0.02554831,-0.03019986,-0.06704798,0.01089801,-0.04442069,-0.04061307,-0.08170180,-0.10698474,-0.09387185,-0.06594598,-0.06864361,-0.05408858,-0.00183501,-0.00667855,0.05247027,0.02951829,-0.01953255,0.04653529,0.09295700,-0.04007766,0.05896426,-0.00325348,-0.02148157,0.03524200,-0.00593603,0.02532297,0.01258585,-0.05567732,0.01203739,-0.09488442,-0.01806903,-0.08573882,-0.01879415,-0.01178131,-0.14448209,-0.17903364,-0.17659783,-0.02375941,-0.00598872,0.05488409,-0.02843990,0.04620653,0.06407087,-0.01752785,0.02757858,0.04608639,0.06391019,-0.04709308,0.04086195,-0.02369661,-0.04931911,0.06892981,-0.03264057,0.09483066,0.07182775,0.05147765,-0.05453629,0.01491965,-0.01176825,-0.11660567,0.01575007,-0.13753810,-0.13971788,-0.04083643,-0.05371392,0.00485983,-0.01419448,0.05913319,0.00841344,-0.06613335,-0.02208141,0.06902245,-0.00172819,-0.04017498,0.05453613,-0.06299211,0.00293270,-0.07541283,0.05578514,0.03673578,-0.04147924,0.04877272,-0.06645370,0.05974876,0.08164549,0.01756925,-0.01166568,-0.08190234,-0.01655284,-0.13090370,-0.15579244,-0.03762690,-0.11294027,-0.02597619,0.00240847,-0.01443907,0.05289083,-0.01999522,-0.00056624,0.01121806,-0.04088770,-0.03532208,-0.08014887,-0.08202075,0.06245406,0.02682655,-0.08296216,0.02759523,-0.03366537,0.02668818,-0.06908832,0.09448942,-0.01282744,0.07728756,-0.07461128,0.00139850,-0.04534390,-0.11293952,-0.01825312,-0.06015604,-0.11548714,-0.08970806,0.04987105,0.02965007,-0.08205478,-0.01635053,0.03739014,-0.02331970,-0.01017401,0.02680802,0.05917415,-0.00100016,0.02166146,-0.08458401,-0.06258228,-0.03921450,0.05009731,0.07753687,0.00222778,0.09274575,-0.02129497,-0.05188801,0.00963789,-0.00227149,0.01690938,-0.08609007,-0.00904274,-0.01233031,-0.06384719,0.05023795,-0.01002286,0.02922366,-0.01338202,-0.10125901,-0.02041614,-0.03685640,-0.02390143,-0.07011018,-0.06907839,0.09230745,0.08012342,-0.00330735,-0.08796322,0.03515577,-0.05575560,-0.00718167,-0.03940397,-0.03639028,-0.01013122,-0.05200218,-0.02496000,0.01418675,0.04563266,0.03977450,0.04382935,-0.01093480,-0.10216264,0.01708088,-0.01597180,0.03581573,-0.05648000,-0.04950761,0.02633494,0.07331930,-0.07836954,0.02949771,-0.04992333,0.01894240,-0.07023055,0.07353004,-0.09016159,-0.07908405,-0.01690714,-0.04703443,0.09068082,-0.01757113,0.01086184,-0.02438630,0.04478923,-0.04040193,-0.01719806,-0.03568845,-0.03589449,-0.08403670,-0.03541733,-0.00778580,0.05427291,-0.04805641,-0.00349398,-0.07271016,0.07257988,0.03764842,0.04767165,0.05678365,0.01768265,-0.01345200,0.05845672,-0.07338796,-0.06435566,-0.07301171,-0.09194411,0.01822624,-0.05653914,0.01153779,0.04190296,-0.05159202,-0.02350760,0.08960550,-0.05144551,0.00986807,0.00832667,0.02925150,-0.00901768,-0.06462477,-0.06361234,0.06211353,-0.03358946,-0.04790844,0.01592564,-0.06926952,0.07779229,0.07029182,-0.07915862,-0.00812112,0.02070528,0.06337307,0.05609845,-0.01640429,0.06862884,-0.02528134,-0.04691721,0.03539136,-0.00870059,0.09877978,0.01000110,0.08619627,0.01252195,-0.04589409,-0.01016475,0.08502512,-0.05191854,0.00378160,0.05083969,0.06049205,-0.03675586,0.05750941,-0.07845840,-0.04466309,-0.06552458,-0.01689555,0.02387967,0.01720180,0.05835355,0.01394801,-0.03948605,-0.05899582,-0.04888424,-0.03468906,0.09996022,0.05400758,0.08262408,-0.04453160,0.01549452,0.02327465,0.10488996,-0.03982667,0.08449157,0.10219447,0.07058305,-0.01411813,0.07067732,0.06397275,-0.00201025,-0.00953709,-0.06422841,-0.02058644,-0.06550492,0.02855233,-0.00534548,-0.01068801,0.01897390,0.01172933,0.00232263,0.00216853,0.05577534,0.05288540,-0.02364303,0.10427634,0.01895526,0.04299853,-0.03401884,0.11956609,0.09164333,0.07842625,0.06790861,0.09925201,0.01077470,-0.00426726,-0.07318365,-0.07422880,0.01145157,-0.06576201,-0.05894781,0.01888258,-0.03463718,0.05434116,-0.08830592,-0.09105521,0.03470989,0.03078983,-0.00977840,-0.04380877,-0.00476513,-0.04135131,0.02525397,0.06161890,0.10618354,-0.02088879,0.12150099,0.00411288,0.02092202,0.05411605,0.02061941,0.07812058,0.07394065,-0.03518682,-0.03073433,0.02559144,0.01377273,-0.01026250,0.00015502,-0.04875365,-0.07346817,-0.04246242,-0.09648222,-0.01352238,0.02208793,-0.08219485,0.04998536,0.05802595,-0.00987955,0.03565053,0.03805405,-0.03825494,-0.00487434,-0.05896574,-0.03385755,0.14321518,0.08350057,0.00066706,0.08412523,0.13065182,-0.01028635,-0.02941256,0.03833861,-0.01402620,-0.06744076,-0.09230743,-0.03038847,-0.00825096,-0.06597513,-0.03457716,-0.03959680,-0.04535776,-0.02897579,-0.04969196,-0.04033164,-0.05121493,-0.01773525,0.03473594,-0.02964316,0.05519128,-0.05192097,-0.02909106,0.05461662,0.03424403,0.14225256,0.02400392,0.10206619,0.07757196,0.04456386,-0.03756859,-0.03790901,0.01879361,-0.06972283,0.03526853,0.02402726,-0.00651036,0.02585396,-0.00108119,-0.10019844,0.04832935,-0.08374953,0.00858542,-0.02291979,-0.03229125,0.02241897,0.00951986,0.07973400,0.08773308,-0.02266387,0.08361451,0.11221419,0.14656647,0.12715073,0.15579745,0.12471961,0.11859933,0.03967531,-0.04699197,-0.08103291,-0.00386854,0.01326680,0.02395992,0.01976315,-0.00260415,0.02809053,0.04217130,-0.03141507,0.02308414,0.01754228,0.03592328,0.06828173,0.04137969,0.00527191,-0.06515057,0.02783029,0.02496764,0.04549487,0.12644914,-0.02497725,0.00877145,0.09939857,0.03186867,0.06311306,0.07170323,0.08364321,-0.05579989,-0.02938381,-0.08713525,-0.05248185,-0.08288267,-0.06314006,-0.07527205,0.04889807,-0.07489461,0.01162639,-0.03295137,0.02666899,-0.04315308,-0.01583114,-0.03818147,-0.02065060,-0.02239930,0.03871427,0.06317052,0.00216798,0.12169749,0.13251103,0.06952721,0.09299333,0.11258185,0.15334079,0.04953094,0.04960169,-0.08968012,-0.02614233,0.06464405,0.02532780,-0.07443564,0.07968358,-0.04405643,0.02773678,0.03910703,0.00543765,-0.03757534,0.03795608,0.03662086,0.03453089,-0.00037439,0.08511180,-0.01116697,0.03191661,0.06683886,0.11641943,0.00999331,0.04128569,0.06618959,0.15701923,0.03694571,0.05797968,0.09945515,0.13234316,-0.03312963,-0.00303591,0.04396670,-0.09326483,-0.05205015,-0.00835377,-0.02616950,-0.02962882,0.00127705,-0.07729783,-0.02399052,0.08243347,-0.08258937,0.01571348,0.02053122,0.02134795,0.05447883,0.05398742,0.10678782,0.13116413,0.12932499,0.08579859,0.05336758,0.13982159,0.09131084,0.19077726,0.15515989,0.11278160,-0.07017288,-0.00071306,-0.04096373,-0.07845875,-0.00957581,0.07186012,0.06013699,0.02172126,0.02962999,-0.02626154,0.06244449,0.06083238,-0.02976613,-0.02029153,-0.01985506,0.03363276,0.03286687,0.02687602,0.10838724,0.06756156,0.21929929,0.13663390,0.21891783,0.12026798,0.20250873,0.07373197,0.18497251,0.21600947},
			{-0.02737819,0.02671576,-0.03943023,-0.05994574,0.02722634,0.03294221,0.03997377,-0.07245883,0.00866703,0.00810967,-0.00833972,0.01775867,0.00312971,0.00646906,0.05927317,0.04360326,0.01066203,0.01037317,-0.07775117,-0.00882456,0.03755368,-0.01726805,-0.05609189,-0.05966111,-0.07539769,-0.01437896,-0.01098864,-0.03897006,-0.06143140,-0.02727454,0.01729830,0.03736005,-0.03435982,-0.07723854,-0.01163795,0.06912807,-0.06251470,-0.08209202,0.07398778,-0.03675226,0.03877503,-0.01806615,-0.00173073,-0.07908335,0.05260468,-0.05696154,-0.06439968,0.04695515,0.01143236,0.06823201,-0.07040916,-0.00997302,-0.05866458,-0.06587110,-0.04438914,-0.01775537,-0.04643147,-0.04278944,-0.01210465,-0.03392391,0.03728767,-0.07349833,0.03154561,0.02486414,0.00978027,0.05393966,-0.05766367,0.06559584,0.05424175,-0.01510362,0.06446689,-0.02072841,0.02206697,-0.06489011,-0.07154381,0.00269765,-0.02251272,0.06499834,-0.02551464,-0.01833136,-0.06206008,0.07336019,-0.07862221,0.07939303,-0.03529526,0.06307240,0.04087910,0.03869318,0.06485099,0.01403537,0.01216611,-0.00457470,0.05158083,-0.00267088,0.05031504,-0.01364224,0.00651826,-0.07112886,-0.07965283,0.02632502,-0.04244914,-0.06156316,-0.03022391,0.04216574,-0.06051961,-0.03881090,-0.02095466,0.05171721,0.02019767,0.02521981,0.07349174,0.02386483,0.06031574,0.05650553,-0.02389522,0.07411097,-0.03886124,0.01879030,0.03160220,-0.05017203,-0.06731722,0.03160349,-0.04449518,-0.06522666,0.01585206,0.00132547,0.04964822,0.04920329,0.03642223,-0.06661078,0.05240935,0.02040631,0.05446184,0.03687481,-0.07064530,0.04329678,-0.02445586,0.05048555,-0.02778374,0.07217704,-0.01976113,-0.07656648,-0.06886005,-0.02651244,0.03375414,-0.06897527,0.07503366,-0.07015358,0.02832238,0.05038668,0.05279477,0.01265329,-0.04823425,-0.06566545,0.06655702,-0.06347802,0.03696693,0.05838761,-0.01661222,-0.01488565,-0.07865547,-0.06836255,-0.07337949,-0.04727512,-0.03043473,0.03892414,0.07872215,0.07766445,-0.07826653,0.06438082,-0.03934634,-0.05959530,0.06891467,-0.00348910,0.05210684,0.07030222,-0.01514539,-0.05623834,0.07569250,0.01252271,-0.03749609,-0.03726156,-0.01369091,0.03633602,0.01243285,0.08020099,-0.07348079,-0.01219987,0.07978603,0.06679569,-0.05576359,-0.06515178,0.05958758,0.07395235,-0.08170277,-0.04267895,-0.03935905,0.02931996,0.07280129,-0.07383007,0.04260924,0.08166064,-0.03821016,-0.04410708,-0.08037995,0.00532375,-0.06133714,-0.07921124,0.05602889,-0.06153998,0.06806441,-0.07626639,0.02940917,-0.02205738,0.08206609,0.02309706,0.05511966,-0.01760858,-0.01916998,-0.04390394,-0.03703953,0.01452991,0.01217198,0.05212498,-0.01252240,-0.03332869,-0.01087607,-0.02084398,-0.08235949,-0.07125070,-0.05077108,-0.03921250,-0.07522456,-0.01178666,-0.07341825,0.01745335,-0.02829603,0.06929921,0.01539458,0.04511371,0.06554589,-0.07691371,-0.01686245,-0.04237383,-0.04260571,-0.03526912,0.02481414,0.04679926,0.04836507,0.04815961,-0.02995483,-0.04408724,0.02443717,-0.00192751,-0.01514044,0.03418701,0.05197397,-0.02023209,0.07233223,0.00287970,-0.06559530,-0.07018209,-0.00309679,-0.04998005,0.07522783,0.00129866,-0.04334618,0.02455608,-0.04613515,0.02598890,0.05924079,0.03070510,-0.01995610,0.01034816,0.00515692,0.01009081,-0.00382013,-0.03176124,0.00784000,-0.04870146,0.06555691,-0.02259500,-0.03707137,-0.00661350,0.01285685,-0.06392165,0.01421613,0.07758632,0.02126902,0.00587931,0.06292465,0.07143010,0.02877808,-0.04973611,-0.02888682,-0.07209476,-0.00071653,-0.02492472,-0.03907972,-0.03220934,-0.04240689,-0.06979026,-0.04391222,0.07456413,0.05904274,-0.06701492,-0.01868919,-0.04727528,-0.00653407,-0.01527010,0.05124012,-0.02057441,0.08230971,0.06268653,0.01545517,0.07502261,-0.04669372,0.02301570,-0.06182783,-0.07741600,0.06375079,-0.06151116,0.05245090,-0.01489332,-0.07237423,0.01203680,0.02990052,0.00757149,0.01947404,0.03587563,-0.03045627,-0.04355307,-0.07991879,0.00273327,0.00894135,0.03357928,-0.00206421,0.07039636,0.07935452,0.05775760,-0.05477372,-0.04973391,-0.08171184,0.05580336,0.05258843,0.06686020,0.00840653,0.01938414,0.02897409,0.02076019,-0.06104714,0.06922524,0.05714332,0.07238910,-0.07812794,0.07775444,0.02215565,-0.02619158,0.00575250,0.03047462,0.04699782,0.07414776,0.05364171,0.04602627,-0.03472356,-0.06015925,0.06925124,-0.06332669,-0.01136506,0.06794111,-0.02088429,0.02516119,-0.01557845,0.06206366,-0.01364927,-0.01779744,0.05715853,0.05288309,0.02942936,-0.00524680,-0.01994015,0.07046403,-0.02671943,-0.04879545,-0.03505761,0.01372086,-0.05076031,0.05941254,-0.03334890,-0.05733447,0.02877656,-0.02552595,-0.03801755,0.05628759,0.05996069,0.01855335,-0.02861213,-0.06339188,-0.00579537,0.06148656,-0.01083040,-0.06794775,-0.04660973,-0.02197026,0.03150798,0.06395966,0.04732805,-0.06225297,-0.07617617,-0.00588973,-0.02518744,0.03737221,-0.07191916,-0.00806146,0.05878389,-0.06690944,-0.05265639,-0.01438013,-0.05706651,0.05531070,-0.02028854,-0.00084070,-0.06331854,-0.01966335,-0.00753478,-0.07129114,0.07446881,-0.06059849,-0.03808127,-0.00715943,0.05416106,-0.04022072,0.05581421,-0.03166562,-0.01745516,0.06094250,-0.02508070,-0.03045185,-0.07017533,-0.03268110,0.00776988,-0.02549352,-0.04252079,0.01039859,0.05002677,0.03667065,0.02156548,-0.02189242,0.06326321,-0.07679527,-0.01988688,-0.04193410,0.02753969,0.01529827,0.01835617,-0.02644609,-0.00732926,-0.04958113,0.05315028,0.05043209,-0.06312642,0.08133829,0.02442805,-0.01779530,-0.02777154,-0.01200327,0.00218429,-0.04024552,-0.05986162,0.05763772,-0.04733531,-0.04050600,0.07014333,-0.02377721,0.06036545,-0.05644884,0.00992347,-0.03319090,-0.00730062,0.02178557,0.02479354,-0.00139870,0.03186420,-0.08029339,-0.04442494,-0.05551727,-0.03288939,0.07154763,-0.04474515,-0.02475260,-0.06781518,0.07631463,-0.03727622,-0.02568597,0.04183915,-0.06232478,0.04357901,0.02470119,0.00483398,0.04795292,0.01338897,0.04176690,-0.00728942,-0.05902458,0.00097262,-0.08100249,-0.06512573,0.07317127,0.05830327,0.04541460,0.01970069,0.04655017,0.01247213,-0.00064428,-0.05558993,-0.06251214,0.02664265,-0.01105414,-0.08106685,-0.06416771,-0.00810680,-0.05691568,-0.04043405,-0.03965364,0.03148656,0.02016132,-0.06349887,0.07390268,0.02874081,-0.04443315,0.03618315,-0.03197422,0.08079492,-0.02463907,-0.06074040,0.02614100,0.03952703,0.04327156,0.01647554,-0.02487489,0.06801388,-0.05634959,-0.05445656,0.02636380,-0.03190893,0.06726912,0.03107750,-0.06570742,-0.05301229,0.02399602,0.00403083,0.01618780,0.01513720,0.05401146,0.03735590,0.02176522,-0.02461231,0.01174392,0.07301041,-0.07214487,-0.07908463,-0.06618690,0.03002181,0.07788728,-0.05814147,0.01658725,-0.07227488,-0.07718320,-0.01591045,0.03766640,0.06595087,-0.01744927,0.03599735,-0.07769755,0.05622415,0.04814655,0.03839236,-0.08218285,0.03222865,-0.02869280,-0.02975544,-0.03754790,-0.05752178,0.01455577,-0.07265337,0.07286246,-0.00074833,0.04710248,0.03521874,-0.01740906,0.04876231,-0.06896824,-0.02661507,-0.04305001,0.07989730,0.00527292,-0.01230861,-0.03549192,0.06446317,-0.00929627,-0.06340870,-0.03132363,0.00462147,-0.01370443,-0.00899930,-0.04122518,0.01838926,0.01966643,-0.05446041,-0.06948385,0.04546449,-0.04348269,0.06717660,0.05373237,-0.07366311,0.04949960,0.06361447,-0.07570690,-0.06458758,0.02408612,0.03243151,0.03353752,-0.05560134,0.06406553,-0.06734124,-0.08075382,0.02456765,0.03569479,-0.04249426,0.01130340,0.05934872,0.06848484,0.00707161,-0.03474224,-0.02271030,0.05258003,-0.04351651,-0.05834632,-0.06838989,-0.00724567,0.03506616,0.04775536,-0.05532559,-0.05016217,0.01451317,0.07263148,-0.03816679,0.07680918,0.04451025,0.07454213,-0.06069474,0.08009660,-0.04162735,0.06984410,-0.05871105,0.01627535,0.00977768,-0.04211441,-0.03367683,-0.02804388,0.06611179,0.00954378,0.00911377,-0.04115707,0.07025152,0.07153244,0.00668370,-0.06698783,-0.00014248,0.02800332,-0.04852943,-0.06903278,0.06735361,-0.04961231,0.04863466,-0.04525781,0.06396984,-0.04634298,0.04938805,0.05087996,0.06483462,-0.01157074,-0.02751248,-0.00559517,0.05640788,0.07027130,-0.07554868,-0.06012792,-0.03613263,-0.05021131,0.06368321,0.01561763,0.04506104,0.06976210,-0.06165502,0.03895689,0.02234519,0.02260620,0.00540596,0.02773289,0.01846804,-0.03770416,0.03619250,-0.07352821,0.03726260,0.02423187,-0.02118481,-0.06082402,-0.03444994,-0.01127080,0.04620308,-0.00049210,0.02766778,0.07929827,-0.05875920,-0.00503688,0.04568440,0.07807979,-0.03586162,-0.00743411,-0.03350926,-0.05249442,0.01706666,-0.01555550,0.00341379,0.00780044,-0.00501478,-0.02717788,-0.02050138,-0.03567465,0.06413648,0.07774967,0.00341314,0.00401729,0.04193173,-0.02611952,0.04483488,0.01698005,0.01378329,-0.08211967,0.06767769,-0.03133947,-0.00727680,-0.06489386,-0.07673306,-0.03903667,-0.07696348,0.02994621,-0.06713110,0.02551436,-0.01273163,0.00138104,-0.07913946,0.04169621,-0.04926672,0.08134320,0.03600711,0.00983238,0.01045948,0.07697865,-0.03897512,0.01987069,0.01461608,-0.04862945,-0.07527175,-0.03172095,-0.07139581,0.01662828,0.03998597,-0.01342510,-0.06556810,-0.05675430,0.05097978,-0.02711722,0.01792311,0.03366999,0.06236954,-0.03660612,0.00586553,-0.05182612,0.00126074,0.00360448,-0.07204253,-0.00419866},
			{0.06074291,0.00044583,0.00125164,-0.06156483,-0.07771213,0.01831587,-0.09131107,0.00532641,-0.05171508,0.00822362,0.00536417,-0.08885773,-0.04394044,0.02940174,-0.10269126,0.02596384,0.04856940,-0.08964346,-0.08835747,-0.09081867,-0.10319296,0.00481576,0.03561868,0.01533972,0.00506270,-0.04487041,-0.11903398,-0.07356692,-0.01518528,-0.02224244,0.02718007,0.01400022,-0.03643923,0.05657264,-0.02883012,-0.07900112,0.02590469,-0.09553989,-0.06771836,-0.02273865,0.01379316,-0.04086582,-0.11644409,-0.10835523,-0.03067530,0.04200329,-0.03932913,-0.09103955,0.03673828,-0.05725052,0.01504740,-0.07111976,-0.07537962,-0.07984308,-0.04958965,-0.11084335,0.04504716,-0.01672114,-0.01346832,-0.04059568,0.02916619,-0.03848657,0.03783441,-0.08949681,-0.03225270,-0.06332770,-0.09677897,-0.02340505,0.00595751,-0.10710308,-0.11993809,0.02516489,-0.00589414,-0.04709655,0.04920245,-0.00642979,-0.11429183,0.03994752,-0.10699025,0.01843779,0.03212394,0.02315338,-0.09199899,0.03906763,-0.01162288,0.00337936,0.03583115,0.00297609,0.05482687,-0.05232782,-0.08393659,-0.06202228,0.00196846,0.01213163,-0.08666836,0.05824674,0.00661768,0.03774682,0.00858575,-0.00749043,-0.03719989,-0.02181032,-0.08144893,-0.01749682,-0.05385542,0.01705448,0.02818190,0.02807574,-0.02182459,-0.10746703,0.03986564,-0.00803765,0.02370807,-0.05147996,0.00016660,-0.03535729,-0.08352293,0.00142014,-0.06051483,-0.02789190,-0.02054103,-0.08055031,0.03180621,0.02247155,0.00228267,-0.10518604,0.05255228,0.04829437,-0.08619677,0.02493363,0.04132280,-0.01733190,-0.05147944,-0.07439049,-0.06989004,0.04789258,0.02242076,-0.06626084,-0.03490466,-0.07346188,0.05566296,0.00314979,-0.01796101,-0.06674071,0.00124209,0.08795140,0.03776403,0.01420457,-0.08078645,-0.05533478,0.00252398,-0.03075097,0.04987360,0.04209024,0.03033113,-0.00019037,-0.07641209,0.01809575,0.01130134,0.02088864,0.00383594,0.02129206,-0.06542240,-0.08500288,-0.00524124,0.02137058,-0.04114623,-0.04003070,0.06339400,-0.02568819,0.06644091,-0.04571562,0.08881471,-0.00709201,0.07111060,0.00289945,0.06723087,0.01456166,0.00244942,0.00100995,0.06026614,-0.05877180,0.01313107,-0.06518933,0.03328194,-0.07836990,-0.04229223,-0.06611547,0.02363822,0.01894146,0.02378400,0.01076482,0.03401763,-0.03930357,-0.12210613,-0.03494034,-0.04363591,0.07078602,0.00831993,-0.03071539,-0.05576199,0.02901342,0.05418700,-0.04062275,-0.02829638,0.01277387,-0.07136957,0.00570841,0.06170442,0.05264157,-0.03745387,-0.04984767,0.02433937,-0.03145874,-0.04843302,0.03662322,-0.01385896,-0.09809206,0.00006665,-0.07744525,0.03736046,0.02512871,-0.05598041,-0.00867319,0.04482977,0.01363814,0.00816163,-0.06853547,-0.05723581,0.03820237,-0.01017834,-0.02327407,0.03900537,-0.01878068,-0.00003681,0.05158896,0.07553974,0.00006493,0.07616083,0.04140773,-0.01116268,0.03301780,0.03213592,-0.04744235,-0.01660796,-0.06757278,0.03803568,-0.08339453,-0.05702571,0.01726648,-0.04927856,-0.01655160,0.00272492,0.07899618,-0.01439349,-0.01126799,0.00413973,0.04617349,-0.05264673,0.01044929,0.06721365,0.04872653,0.03231942,-0.01219674,0.00031523,-0.02921260,0.01943775,-0.06318437,-0.02206785,0.00595170,-0.08714058,-0.03611447,0.00786373,-0.06760830,0.00342359,0.00603588,-0.08870903,0.04172213,-0.02433675,-0.07390394,0.03757993,-0.02242206,0.03340234,-0.08172546,-0.01179705,-0.03171075,0.04245087,0.05004269,-0.00725112,-0.03954173,-0.00976948,-0.05868508,0.03140687,-0.04958738,-0.04598312,0.08531514,0.04917349,-0.04773097,-0.03729924,-0.00390841,-0.02043645,-0.00825515,0.00244334,-0.09526062,-0.06264461,-0.02808583,-0.07147128,0.03675331,0.00657242,-0.03003250,0.00426074,-0.04513376,0.05030474,-0.03163178,-0.01483979,-0.04665945,0.01793443,0.04610161,0.01040487,0.04703071,0.09679615,0.06297165,0.08292932,0.08523732,0.07622364,-0.01376356,-0.02412917,0.05394905,0.02333226,-0.08803295,-0.01776174,-0.08728853,0.04194715,0.01699105,-0.00228390,-0.01309124,-0.01301711,0.06871757,0.05678719,0.01414528,0.02027197,0.00385679,0.00533468,0.01595786,0.06978875,0.07173324,0.02866102,0.04557728,0.00682781,-0.00231928,-0.03238170,0.02669829,-0.00746160,0.01276526,-0.06544118,-0.08128254,-0.01790435,-0.05654382,0.04348522,-0.06263217,0.00688566,0.03512350,0.00076030,-0.02593767,0.07614834,-0.02150031,-0.02024071,0.05308381,0.01373085,0.00911062,0.08275752,-0.02733509,0.09627442,0.07056683,0.00273860,0.10420839,0.06964725,0.04276843,0.07321167,0.05695269,-0.02633977,0.09691375,0.01993189,0.02909344,-0.02713102,-0.03492545,0.10011635,-0.06045484,0.03688616,-0.00920068,-0.04488434,-0.07176144,0.03775478,-0.04359175,0.03161099,0.05525335,0.01112515,-0.02462666,0.05025714,0.06588495,0.10062866,0.00611399,-0.04179321,0.02047571,0.04724681,0.11557744,0.03159418,0.11746471,0.01278707,0.01185755,0.00888673,0.08788189,0.02839225,-0.01849319,-0.01384171,-0.03005686,0.04033177,-0.06589589,0.03356314,0.00678149,-0.01432829,0.04740217,-0.05245507,0.03745950,0.02520921,-0.00197365,0.00475499,-0.02236795,-0.01195482,0.09254416,-0.04684186,0.00733432,-0.01125371,0.05704959,-0.00095345,0.01965942,0.10722037,-0.04263638,-0.00089632,-0.00118000,0.02986739,0.09216803,0.02721031,-0.00225328,-0.03813156,-0.01299901,0.00621512,0.04891834,-0.05669299,-0.04228879,-0.08180397,0.00588263,-0.00693175,-0.06133407,-0.02768141,0.10695788,0.08082332,0.07183921,0.02461218,-0.01100656,0.07621464,0.01447116,0.02744301,0.06015225,0.00575720,0.10283776,-0.00200259,-0.04002447,-0.04027475,-0.03950132,-0.00157379,0.11302504,-0.03271030,0.07411186,-0.03988455,-0.00077594,-0.06161163,-0.03782841,0.02329608,0.02555871,-0.01902213,0.02411315,0.01122365,-0.04820134,0.00234711,0.06033500,0.03874130,0.03102187,0.03431306,0.10805793,0.09364023,0.08825903,0.09899269,-0.00148861,0.04518284,0.08826725,-0.03855200,-0.02059302,0.03142118,-0.01545902,-0.00918844,0.07246120,-0.02892212,0.03068583,0.03260858,-0.00611464,0.00224466,0.08588495,0.01658216,0.01515924,0.05740628,-0.02433428,0.03229555,-0.02955770,0.01315044,0.06614236,0.11290722,0.07479268,-0.03326450,0.10873066,0.03587168,-0.04686284,0.06938554,0.10395076,0.02383752,0.10009911,-0.02399712,0.10244024,0.03862046,-0.04763452,-0.01312706,-0.06437390,-0.06766623,-0.07149533,-0.00016840,-0.00953098,-0.05319247,-0.04591223,0.08727691,0.08166459,0.01108044,0.13688006,0.00585839,0.05554675,0.09434460,0.05753146,0.02342241,0.06170628,-0.00543438,0.05481753,-0.01549270,0.07208386,0.02916618,0.00961736,0.08586356,0.06891429,0.09013678,0.03381215,0.03400137,0.04381693,-0.01293802,0.02552115,-0.00785262,-0.02168698,0.08609837,0.10006066,0.02175523,-0.03614966,0.06236644,0.09127315,0.07442132,0.00443624,0.06322173,0.00548781,0.04630358,0.02108114,0.05669582,0.11356520,0.05187063,-0.00227842,0.09495693,0.08284321,0.08616301,-0.06187671,0.09668746,0.00801283,0.02582364,0.08190209,-0.03813611,0.03150174,-0.04127501,0.05910791,0.01457523,0.04609964,0.08710449,-0.04229533,0.11381737,0.06409962,0.02189973,0.06619462,-0.03672170,0.02694069,0.12440400,0.00883333,0.12544298,0.11542759,0.04798264,0.01203957,0.11330954,0.03165093,0.08130533,-0.05261172,-0.04978028,-0.05923475,0.00607404,-0.05220873,-0.08589222,-0.04684912,-0.03313053,0.04077291,-0.05205349,-0.02949233,0.03056002,0.08805827,-0.01108693,0.08386546,0.07385860,-0.00782933,0.03450703,0.09698988,-0.01631898,0.03680436,-0.05087560,-0.04202018,-0.04914174,0.06368010,0.08294230,0.01325062,0.00661161,0.06459927,-0.00902737,-0.00759543,0.07601193,-0.01283010,0.04682757,0.07334957,-0.02885702,-0.07423954,-0.05281679,-0.04870129,0.01702410,0.04912586,0.01590976,0.02115542,0.04763793,-0.00683057,-0.01508791,0.08829531,0.01815318,0.00978951,-0.02847123,-0.05670521,0.07418416,-0.00386254,-0.00368108,0.05607185,-0.02831422,0.07544360,0.01827674,-0.00609525,0.11161927,0.10985991,-0.05535608,-0.02053888,0.00841882,-0.01127633,0.05465174,0.04388138,-0.04329152,0.07162508,-0.05530295,-0.06145399,0.08619311,0.05620151,0.00711667,-0.06232544,0.01857712,0.02590783,-0.06074428,-0.03916631,0.04166266,-0.03414684,0.04569956,-0.04641970,0.06202662,0.06088179,0.04238035,0.07607324,-0.00334020,-0.02802322,-0.07367705,-0.03370696,-0.01512155,0.05308976,-0.00906044,0.03635058,-0.04627461,-0.03403655,-0.08836823,0.02796433,-0.04828531,-0.00501852,-0.01706381,0.04693879,-0.02526912,-0.05520791,-0.07792147,-0.00266324,0.06172881,-0.06665406,0.05419602,0.06491631,-0.02451041,-0.00998836,-0.00171166,-0.03972918,0.07418697,-0.03577692,-0.08134332,0.03489125,-0.00817221,-0.08029116,-0.02696961,0.03057358,-0.08655525,0.03120675,-0.09432548,-0.10188358,-0.09215819,0.00372520,-0.04712246,0.01117064,0.03140586,-0.08756523,0.01157709,-0.06700251,-0.01538771,-0.06656588,0.00139439,-0.03299742,-0.06755474,0.05764061,0.05098576,-0.02167250,0.06646270,0.07457066,-0.02334923,0.01277807,-0.02655182,-0.08628304,-0.10238691,0.01762850,-0.05967531,-0.04680921,0.02332320,-0.13190657,-0.09395359,-0.04426128,-0.06238163,0.01088901,-0.03558603,-0.02274788,-0.12488806,-0.00489105,-0.05858951,0.03609784,-0.07156501,-0.13080736,-0.02230944,-0.09467804,-0.03312574,-0.06471974,-0.01296918,-0.04492250},
			{0.02555237,0.00664690,-0.06291611,0.02361001,-0.00145137,-0.04175176,-0.03520016,0.03773138,0.07242980,0.02964624,0.03879233,0.05896521,0.06737500,0.08091566,0.06461687,0.00988607,-0.04853604,0.01678377,-0.07546424,0.03024617,0.02585394,-0.08026490,-0.04855445,0.05827194,-0.04029639,-0.00713759,0.03621659,0.03011015,0.00298949,-0.06710093,0.06536938,-0.08133879,0.07140307,0.02525557,0.00268905,-0.04554178,0.08055031,-0.05964929,0.00623586,0.01633095,-0.05425482,0.05814042,-0.05601399,-0.02170679,-0.06986944,0.02057772,-0.05239334,0.01154672,0.06139065,-0.02822013,0.04846551,-0.07522006,-0.00563287,0.01439996,-0.03257067,-0.06842373,0.07796362,-0.00737933,-0.00422075,-0.03631884,-0.03681315,0.01011694,-0.07497804,0.04124268,0.08038858,-0.08180444,-0.03878543,0.02729144,0.00887451,-0.05018489,0.02755642,0.06812729,-0.06849151,-0.03664555,0.03584122,0.03603377,0.07283008,-0.01530419,0.06202213,-0.07404025,-0.02958245,-0.02866370,0.02680609,-0.01000685,-0.00722427,-0.07239813,0.00081828,0.01532051,-0.02849363,0.05451021,-0.05258435,-0.04718460,0.04178948,-0.05487249,0.01801751,-0.04153796,0.05094688,0.06679851,-0.04404144,0.07816266,-0.03339634,-0.04088197,0.07018565,-0.01177652,-0.01351406,-0.04924142,0.01223729,-0.06159783,-0.02385633,0.05329441,0.06985918,-0.01589326,-0.02664241,-0.05276831,-0.03383045,-0.02006134,-0.04447263,0.03185586,-0.05659366,-0.04613392,-0.01895764,0.07415707,-0.06410827,0.05483349,0.01270847,-0.01450561,-0.08039150,0.02571110,-0.07155085,0.04025516,0.07476832,0.06415872,-0.01512867,0.00148480,-0.07305377,0.00027638,-0.04593239,0.02804818,0.00488477,-0.02949517,-0.04366429,0.04011877,-0.05853727,0.01285975,0.05713867,-0.06777982,0.07730920,-0.05759598,0.01723136,0.05765054,-0.06445735,-0.04447360,0.03539035,-0.06814083,-0.07847813,0.04396261,0.01252473,-0.06716152,-0.01938294,-0.06033267,0.00702226,-0.04998523,0.03329417,0.05961429,0.03285963,-0.00971822,0.04241863,-0.03897912,-0.05995128,-0.00080473,0.01175911,-0.05156953,-0.06198612,0.04680923,0.03789197,-0.06858317,-0.06665961,0.04391984,0.05388209,-0.06435444,0.05511443,0.05529181,-0.05501696,-0.00093605,-0.07219091,-0.01964979,-0.06750216,0.00693895,0.03144222,0.07344975,-0.02712111,-0.00851420,-0.02008316,0.00774017,0.00687508,0.02977096,0.00230097,-0.08017562,0.04594278,-0.05654077,0.07188767,0.04142783,0.06235423,0.02441768,0.05557226,0.07559428,-0.02716572,-0.00868250,0.00728145,0.01625030,-0.03888509,-0.02456376,-0.06631430,-0.05291469,0.03041996,0.04170139,-0.05905149,-0.02107026,-0.01853875,0.04037147,-0.03816311,0.04052531,-0.05481379,0.01529158,-0.00933222,-0.07633705,-0.01803183,0.01654202,-0.03862577,-0.01663175,0.06419637,-0.00021102,-0.00348860,-0.06832793,0.06611214,0.05915955,0.03728011,0.01132505,0.07272743,-0.03228520,0.06458004,-0.04851494,0.05387326,-0.04556859,0.00238714,0.02271026,0.01904101,0.05005769,0.05473881,-0.04840580,0.01694831,0.01951527,-0.01482550,-0.04446409,0.06420014,0.01755381,0.00376451,0.02933196,-0.03066402,0.07507886,0.02575696,-0.07670554,0.05468833,-0.07541149,0.01043401,0.04348898,0.02284012,-0.01802395,-0.00538791,-0.07421497,-0.02406116,0.02301394,0.08040988,0.01778806,-0.00058430,-0.04226856,-0.07258056,0.02180427,0.01790504,0.04295566,0.02750401,0.07462560,0.03901396,-0.05389130,-0.01894485,-0.06996990,0.02263875,-0.00213491,-0.00006272,-0.07702325,0.05067559,-0.07175586,0.02691583,-0.02019122,0.03893135,0.04205313,-0.06279764,-0.04041237,0.01586968,-0.03702849,-0.02557561,0.07273296,0.04055846,-0.02738179,-0.04412189,0.05291877,0.06659322,-0.01527085,-0.05271607,0.00822940,-0.04038588,0.06558586,-0.01161883,-0.03271003,0.08078152,-0.05850424,0.07812183,0.05534474,-0.01942384,-0.05665835,-0.06829824,0.03731790,-0.06754743,-0.08347941,-0.01819326,0.03536022,-0.08203564,0.06559432,0.02046542,-0.05451426,0.07602651,0.06918376,0.02799436,0.00007828,-0.02536666,0.00169324,-0.03968253,0.04831240,-0.06225350,0.03044573,-0.03740394,-0.04768812,-0.04752401,-0.07171965,0.05997563,-0.05808304,0.03262112,-0.02573494,0.03528781,0.03132369,0.01869086,-0.07711054,0.07138819,-0.05532645,-0.07634486,0.00251595,-0.03961441,-0.06954440,0.05370362,-0.01300590,-0.06873587,-0.02468645,-0.04712041,0.03604758,0.02427213,-0.04935657,0.01274815,-0.07356526,0.03252321,0.03137474,-0.03591571,0.04886559,0.02474488,0.00538484,-0.05269534,0.00552697,0.02991137,-0.07754468,0.03692329,0.06076485,0.05097747,0.02497652,-0.02298475,0.06638660,-0.06511794,0.01290649,-0.05391157,0.05369605,0.06321163,0.03354080,-0.02963270,-0.04801043,0.05884835,0.07107535,0.04288703,0.07822376,0.07629536,-0.01672608,-0.05451200,0.05878422,0.00359170,-0.01417421,0.05159716,0.02526148,0.03163253,0.00613472,0.01251521,0.02364493,0.07895347,0.03210337,0.04898823,-0.07062472,0.02320013,0.05284266,-0.08057006,0.06146346,-0.05588547,0.07533439,0.07793763,0.07094046,0.05299234,-0.02509079,0.01089756,-0.01863312,-0.04129953,0.03666861,0.00471746,0.07285414,0.06782836,-0.05218343,-0.07402775,-0.07509331,-0.06992070,0.03939621,-0.00223148,-0.06111152,-0.05704520,0.00863107,0.06976128,0.05782214,-0.01257970,0.01559148,-0.04847106,-0.02045546,-0.03838052,0.02715326,0.00470692,0.02181614,-0.07749195,0.08093733,-0.05154024,0.02176882,-0.04734319,0.06650572,0.05948903,-0.01221186,-0.02923800,-0.03491903,-0.06183450,0.00080561,-0.04801418,0.01936614,-0.03996216,0.04822598,-0.08243728,0.01283485,0.05992609,-0.04454149,-0.00205728,0.02258449,-0.03723367,0.05142289,-0.03297818,0.06328123,0.00148445,-0.08306692,0.01302458,-0.02326579,-0.00413018,0.07668743,-0.05131056,0.03488123,0.02499559,-0.05764987,-0.01562647,-0.01744733,0.06436711,0.06786683,-0.08039060,-0.04859052,-0.05822028,-0.02367849,-0.02617786,-0.01232577,0.01295507,-0.04580240,-0.05697177,-0.05965264,0.08006504,-0.08043499,0.00767694,0.04764598,-0.01537007,0.00869526,-0.02035222,-0.02738287,-0.03014863,0.00372105,0.04429170,-0.06972180,-0.04103678,-0.02943609,0.00684146,0.03310772,-0.06400787,-0.07456996,-0.03255581,0.05132575,0.06051473,-0.02540956,-0.07849702,0.07731399,0.06701695,0.01965111,-0.01442734,0.07659665,-0.05783897,0.04434236,-0.06357358,-0.01648085,-0.06025073,0.06748362,0.05500955,0.05416838,-0.07144797,-0.05449603,0.07241439,-0.07844561,-0.05616350,-0.07505979,0.01492861,0.05878734,-0.01159811,-0.03031976,-0.00800362,-0.01687588,0.04138179,0.00969565,-0.07814507,-0.07852433,0.04554364,0.04399485,-0.02280417,0.04835695,-0.07922577,0.06418817,-0.01262840,-0.05072882,-0.03133999,0.06669977,0.03985607,0.05912190,-0.04343264,0.01003998,0.05550174,0.04244442,0.06057967,0.04214730,0.00884279,0.07216547,-0.04969272,-0.03934890,-0.00036445,-0.06014895,-0.06035927,-0.00991029,-0.00346480,0.03985031,-0.03491027,0.05919601,0.06360073,-0.03627990,0.01274264,0.00817817,-0.03104218,-0.03696059,0.00456497,0.02964765,-0.07351205,-0.06398917,0.03385840,-0.07782584,-0.05052832,-0.01568636,0.03647771,0.06113052,-0.05843926,0.02453756,0.00851819,0.00290044,-0.00618589,0.04744701,0.04795418,-0.00586491,-0.03145142,-0.05242118,0.04503329,-0.04052610,0.04706020,0.07285031,-0.02865035,0.02871675,0.05673113,-0.04592430,-0.04183177,0.01434608,-0.01049867,-0.03786858,0.05784557,-0.04503692,0.02891141,-0.01768675,0.06538340,0.07407991,-0.03120525,0.04489115,0.03469163,0.02010441,0.05617179,0.05593068,-0.00636345,-0.02190125,-0.03855930,-0.06405818,0.02496892,-0.01317248,0.05498299,-0.01041758,-0.06062174,-0.05060113,0.03119809,0.04137469,0.02142214,-0.03190920,0.00072633,0.01220089,-0.01080354,0.03466662,-0.07826300,-0.05899352,-0.05217604,0.00265287,0.00908508,0.05049841,0.05369949,-0.04346335,-0.06871130,0.02735057,-0.03678385,0.04054561,0.06578723,-0.03351228,0.05313392,0.00509909,0.03947254,-0.03923141,0.06011534,-0.06729116,0.03423228,-0.07294989,0.04123854,0.01928503,0.01405028,0.03564601,-0.01541774,-0.08249662,-0.01485438,0.04081652,-0.02081756,0.07756659,0.01144801,0.01578506,0.02272624,0.04574449,0.02651795,0.02439894,0.01513296,0.04563292,-0.01027523,0.06530007,-0.06776910,-0.06453994,0.04355566,-0.05299306,-0.06785480,0.04655091,0.05769571,0.01576174,0.03418502,0.02042491,0.07635844,-0.01672261,-0.00349961,-0.02735450,-0.06280532,0.04576371,0.02402977,-0.05833872,-0.08285832,0.05172983,0.06083864,0.04657356,0.01234670,-0.01316910,0.05158022,0.04761176,-0.07542440,-0.06002382,-0.03941602,-0.02445320,-0.04582614,0.02659611,0.01164750,-0.00168209,0.00598686,-0.01999330,-0.00078309,-0.04851473,-0.05092792,0.00294647,0.06201006,-0.00013966,-0.04935607,0.00170772,-0.07158839,-0.02097503,0.05850242,-0.04318253,-0.06520206,-0.05294298,0.02515779,0.04829263,-0.08220973,-0.00142333,0.06593530,-0.04589497,-0.03460503,-0.00952776,-0.01302369,0.03731626,0.02387558,-0.06066838,-0.03611281,-0.02256369,-0.08164481,0.04394049,-0.03454157,0.04446690,-0.02474748,0.01205726,0.07264007,-0.00137216,-0.02456767,0.03060590,0.03327546,-0.04612757,-0.04603868,-0.06322350,-0.01105663,0.00876903,0.03529920,0.03968458,0.03852171,-0.07878223,-0.01476991,0.00112848,-0.02756228,-0.08290211,0.04257876,-0.07749066,-0.02220017,0.05810350,-0.00701175,-0.05725468},
			{-0.06657615,-0.08159832,-0.06698997,-0.05928875,0.12515654,0.05256332,0.07152417,0.15736365,0.15794194,0.12126947,0.05324744,0.11818739,0.01016932,0.16165453,0.05269140,0.01774352,0.13449691,0.09808302,0.08294884,0.09568995,0.05004305,0.09757484,0.02079316,0.12029078,-0.01350796,0.00469736,0.10625023,0.08879749,0.02738788,0.03875782,0.06060941,-0.03344124,0.09803367,0.09113712,0.10815610,0.10407726,0.01566944,0.07991418,0.11082269,0.12637448,0.10690755,0.20192084,0.12683386,0.08325564,0.04342720,0.03003581,0.07935392,0.01964676,0.12205065,0.06118453,0.03499538,0.09403989,0.07855409,0.05127712,0.04662027,0.03457408,-0.03556054,-0.05444204,0.01283571,0.01024386,0.06323679,-0.02819373,0.02290501,0.11037517,-0.01464086,0.03512435,0.04505457,0.13392133,0.15452819,0.08965911,0.14639203,0.04280023,0.07855481,0.07125408,-0.00192194,0.02952262,0.05143223,0.06162145,-0.04584749,-0.07255007,0.10716879,0.03685886,-0.01368959,-0.02130413,-0.07670314,-0.08574338,0.03962817,-0.00801744,0.11246995,0.01895317,0.09051405,-0.01754173,0.05777546,0.05171979,0.04675597,0.03954943,-0.00077935,0.11127595,0.04735593,0.03850077,0.06647898,-0.00706664,-0.03703986,0.07574725,0.04836556,0.07884135,-0.00205418,-0.08486352,0.03229280,0.05541534,0.05367879,-0.05409369,-0.05727588,0.02765151,-0.04076439,-0.01703856,0.07968845,0.07196309,0.07262445,0.09775662,0.07239073,0.02814127,-0.00039531,0.04806352,-0.02682965,0.03535496,0.09594554,0.09370072,-0.00474970,-0.01883214,-0.01756552,0.08728255,0.13650712,0.07099274,-0.04306816,-0.02196143,0.03185182,0.06926466,-0.06088485,0.06803115,-0.10766546,-0.02780510,-0.03689616,-0.08460156,0.04654372,-0.03351087,0.06514900,-0.02831206,0.10699017,0.05939762,0.03448514,0.02858729,0.10325726,0.09796937,0.07668903,0.11568297,0.01013333,0.04896543,-0.03039252,-0.03567552,0.10896415,-0.03318328,-0.04493575,-0.04349015,-0.07967806,-0.00446857,0.00778241,0.05201368,-0.01682069,0.00985192,-0.05345246,-0.05435218,-0.02962560,-0.05655238,-0.02475066,-0.04245784,-0.04047624,-0.02141467,0.00375989,0.05620927,-0.02914028,-0.02286650,-0.07623658,-0.03891150,0.07265608,0.10219166,0.11924049,0.11043525,0.12000289,-0.01863462,0.06114807,0.05884875,0.01132897,-0.03757977,-0.03510074,-0.03906158,0.00191799,0.00578503,0.04054566,-0.07213884,-0.10021627,-0.04806268,0.03707734,0.08595898,-0.03130916,0.04676642,-0.02486321,-0.04538526,-0.02095208,-0.08278748,0.01283011,0.03770392,0.01130296,-0.00387926,0.08980270,0.12031683,0.09344974,0.08720118,-0.11904164,-0.02418260,-0.02092241,-0.02570691,0.06547508,-0.08722460,-0.05938501,0.00296758,-0.08300131,-0.06875302,0.06674930,0.02816201,-0.05321881,-0.01006716,0.04386047,0.05451174,0.12178577,0.02393393,0.02643878,-0.00417554,0.00766850,0.06524686,0.04326975,0.09901109,-0.03120256,-0.00010932,0.03975713,0.03214307,-0.01271452,0.02371209,-0.05440519,0.03465449,-0.12231702,0.04415202,-0.07834258,0.03494567,0.07058345,-0.01249629,-0.02998964,-0.04713729,-0.00984930,0.03984734,-0.05120165,0.02430202,0.05761243,0.06870611,-0.10687138,0.00091117,0.02527521,0.12568341,-0.04366285,0.00692551,0.12910679,0.02658610,-0.04817041,0.00968490,-0.00378762,-0.02986507,-0.08048633,-0.00946915,-0.08914802,-0.00390732,-0.04072450,0.03301153,-0.04235506,-0.01818139,-0.06450615,-0.05389705,0.00823939,-0.06875701,0.06709992,0.04446088,0.00798942,0.00586599,0.01501273,0.00317250,0.03632239,-0.02644747,-0.03088129,-0.09858440,-0.06622675,0.09748713,0.03505798,0.06550334,0.02812738,-0.02987609,-0.03716465,-0.00169118,0.01331348,-0.07359412,-0.02666803,-0.00906438,-0.07969586,0.02368747,-0.07925504,0.00213251,-0.03020352,0.01016738,-0.08251950,0.05523652,-0.02531489,-0.13582817,-0.16103052,-0.07161252,0.01660832,-0.03249434,-0.10884980,-0.04064347,-0.06112256,0.02593885,0.11818849,0.01560128,-0.07425688,0.01587251,-0.09574740,0.03739810,-0.04749663,-0.04123503,-0.07075721,-0.07387630,-0.12289709,-0.14008048,-0.10852450,-0.10490570,-0.01177310,0.00190988,-0.05364214,-0.03890170,-0.00258212,-0.09026506,-0.03109964,-0.11398513,0.01276935,0.04790385,-0.07544614,-0.02486117,0.06518701,0.11526849,0.05872643,-0.06628730,-0.06677332,-0.00707331,-0.01248711,-0.03470557,-0.12784423,-0.03349160,-0.10062864,0.00072485,-0.06199687,-0.03809113,-0.05544237,-0.03481969,-0.02317426,-0.06225723,-0.06115768,-0.08615107,-0.03265651,0.03121075,-0.08575886,-0.11291786,-0.04556440,-0.06858876,-0.07765517,-0.07756655,0.07174621,0.06418917,0.07527800,0.01697976,-0.11065376,-0.07820003,-0.04899121,-0.04184526,-0.06304727,0.07314397,0.00008147,-0.00404184,-0.04556037,0.00761862,-0.00034555,0.02529155,-0.02652413,-0.04259114,0.01389217,-0.01066399,0.05306690,-0.08179690,-0.07332928,-0.11926255,-0.08569659,-0.06574856,-0.10156809,-0.05391319,-0.08381145,0.00965974,0.03576600,-0.11119709,-0.10406196,0.00144038,0.01841037,0.03374600,0.05412343,-0.03379626,0.06029066,0.00273327,-0.07197808,0.01086597,-0.05305759,-0.00893217,-0.11330781,-0.12093005,-0.03312268,-0.07256643,-0.02071873,-0.12454345,-0.08111137,-0.11826112,-0.05552628,-0.11556321,-0.04868896,-0.05030175,-0.07639382,-0.03529534,-0.01232434,0.00843300,-0.03994780,-0.08490989,-0.03065278,-0.00894913,-0.02348137,0.00940814,0.05409412,0.01741178,-0.03488879,-0.05970472,0.02481255,-0.11215579,0.01233061,0.01623108,0.02060060,-0.07531609,0.04941968,-0.04560225,-0.05368076,-0.07275176,-0.04441673,-0.13680653,0.03433814,0.05327684,-0.04560480,0.02332241,-0.09694424,-0.03988193,-0.04698325,0.00752641,-0.06738584,0.03456121,0.07934849,0.07097434,-0.01655110,-0.01072391,-0.07334857,-0.03136050,-0.06670032,-0.00682101,-0.09296957,-0.02175144,-0.01789087,-0.01887051,-0.02886165,-0.06143087,-0.11173590,-0.12011027,-0.04812482,-0.11263113,0.02955211,0.02998293,-0.00475204,-0.06334641,-0.03490285,-0.01875639,0.01059740,-0.11231223,0.01162149,0.05725633,0.06785388,-0.01221884,0.00230585,-0.04947033,0.03075013,-0.03410122,-0.06792158,-0.10180483,-0.11579702,-0.11649381,-0.06804471,0.00769135,0.00469370,-0.04656357,-0.10998610,-0.07015453,-0.03983333,-0.12099117,0.01741730,-0.06978156,-0.08635549,-0.09714804,-0.04071060,0.06389626,-0.05355055,0.07371587,-0.09358206,-0.00501521,-0.02700284,-0.02970475,-0.02359736,-0.05908636,-0.02420723,-0.12607673,-0.07250432,-0.02613433,-0.12106175,-0.10511380,-0.12704273,-0.10972054,-0.08086057,-0.01719875,-0.02694571,-0.00369534,-0.04131009,-0.02448681,-0.06138062,0.02103053,-0.09785447,0.01045565,-0.02439754,0.07165566,0.06797534,0.06308071,0.01621211,-0.05254941,-0.03144950,-0.02957858,-0.04935190,-0.01237466,-0.07651220,-0.06267940,-0.08114167,-0.09215259,-0.08382765,-0.05168160,-0.10620358,-0.08206138,-0.20113395,-0.09679497,-0.00966163,-0.04651748,-0.01506148,-0.14315252,-0.11679744,-0.08526647,0.00386724,-0.11209026,0.00352581,0.05664450,0.05574226,0.05284934,-0.01201623,-0.02010490,-0.06112939,0.00722747,-0.03851184,-0.00232865,-0.00442218,-0.06617262,-0.08686285,-0.04483450,-0.11038452,-0.09841419,-0.10282523,-0.05926549,-0.18943265,-0.04641798,-0.13746858,-0.10423947,-0.13777450,-0.11062051,-0.12650076,-0.08003587,-0.03270660,0.04926043,-0.01905128,-0.01442040,0.06974480,0.07728289,0.06154127,0.04739028,0.06487226,-0.06424845,0.07598168,0.05738432,-0.00217703,-0.06349655,-0.07985563,-0.04664323,-0.03542880,-0.10617790,-0.14092478,-0.06500100,-0.14093007,-0.13693693,-0.10093258,-0.01586800,-0.14335923,-0.05659404,-0.03467892,-0.00618911,-0.04110211,0.07719550,-0.03012064,0.10692505,-0.02989256,0.05966004,0.05616243,0.03080451,0.02707713,0.00729450,0.09077116,0.08606840,0.02525265,-0.08679746,-0.00824070,0.02615974,-0.05213336,-0.09055291,-0.02393152,0.00054788,0.01725275,-0.06338314,0.00210767,-0.04622955,0.02360908,-0.04304273,0.05777806,-0.08606128,-0.02204055,0.09404866,0.03293520,-0.07967109,-0.01973982,0.05302908,-0.05031889,0.07776619,0.03001000,-0.06455787,-0.02088130,-0.01422775,0.01356864,-0.07218091,-0.04869048,0.02664174,0.01794267,0.01734255,0.01810102,0.02398600,-0.09530979,-0.12198216,-0.05883121,0.00216994,-0.00957831,-0.02644675,0.06767399,-0.00033216,-0.01852087,0.11859725,-0.02536972,0.10214852,-0.00262014,0.06841216,0.03936116,0.03724721,0.00100356,0.11545468,-0.00069007,-0.00892083,0.00330727,-0.05490728,0.03815140,0.09106343,-0.01061305,0.04168877,0.06166210,-0.02992376,-0.07078961,-0.03854210,0.04176890,0.05856264,-0.02934521,-0.06407146,0.02353093,0.02183948,0.09534949,0.05509111,-0.00014885,0.14761475,0.12129343,0.08909802,0.07215006,0.11323831,0.07112139,0.01831363,-0.02265438,-0.06392838,0.03272790,0.07267814,0.01705414,0.11084058,0.03539074,0.05708149,-0.02619930,0.09439182,0.00601337,0.12443238,-0.05809813,0.09901650,0.09083135,0.11548676,0.10914424,0.06600023,0.06966230,0.07934333,0.11484411,0.13861798,0.22851920,0.17898917,0.12407422,0.15328431,0.13465870,0.15751934,-0.00102276,-0.07889400,0.08586200,0.01305136,-0.02482786,0.12072605,0.01968289,0.10319224,0.05148139,0.15855885,0.11621057,0.17642121,0.06207716,0.10375066,0.21384789,0.18551226,0.10688332,0.19195520,0.17218518,0.18751408,0.21294586,0.26165763,0.17637287,0.22067828,0.09724517,0.11187869,0.12283858,0.10837840},
